<?xml version='1.0' encoding='utf-8'?>
<BIF VERSION="0.3">
  <NETWORK>
    <NAME>UNTITLED</NAME>
    <VARIABLE TYPE="nature">
      <NAME>CAC Index - Last Price</NAME>
      <OUTCOME>High</OUTCOME>
      <OUTCOME>Low</OUTCOME>
      <OUTCOME>Neutral</OUTCOME>
      <PROPERTY />
    </VARIABLE>
    <VARIABLE TYPE="nature">
      <NAME>CO1 Comdty - Last Price</NAME>
      <OUTCOME>High</OUTCOME>
      <OUTCOME>Low</OUTCOME>
      <OUTCOME>Neutral</OUTCOME>
      <PROPERTY />
    </VARIABLE>
    <VARIABLE TYPE="nature">
      <NAME>DAX Index - Last Price</NAME>
      <OUTCOME>High</OUTCOME>
      <OUTCOME>Low</OUTCOME>
      <OUTCOME>Neutral</OUTCOME>
      <PROPERTY />
    </VARIABLE>
    <VARIABLE TYPE="nature">
      <NAME>ECO Index - Last Price</NAME>
      <OUTCOME>High</OUTCOME>
      <OUTCOME>Low</OUTCOME>
      <OUTCOME>Neutral</OUTCOME>
      <PROPERTY />
    </VARIABLE>
    <VARIABLE TYPE="nature">
      <NAME>EURCHF Curncy - Last Price</NAME>
      <OUTCOME>High</OUTCOME>
      <OUTCOME>Low</OUTCOME>
      <OUTCOME>Neutral</OUTCOME>
      <PROPERTY />
    </VARIABLE>
    <VARIABLE TYPE="nature">
      <NAME>EURCNY Curncy - Last Price</NAME>
      <OUTCOME>High</OUTCOME>
      <OUTCOME>Low</OUTCOME>
      <OUTCOME>Neutral</OUTCOME>
      <PROPERTY />
    </VARIABLE>
    <VARIABLE TYPE="nature">
      <NAME>EURGBP Curncy - Last Price</NAME>
      <OUTCOME>High</OUTCOME>
      <OUTCOME>Low</OUTCOME>
      <OUTCOME>Neutral</OUTCOME>
      <PROPERTY />
    </VARIABLE>
    <VARIABLE TYPE="nature">
      <NAME>EURRUB Curncy - Last Price</NAME>
      <OUTCOME>High</OUTCOME>
      <OUTCOME>Low</OUTCOME>
      <OUTCOME>Neutral</OUTCOME>
      <PROPERTY />
    </VARIABLE>
    <VARIABLE TYPE="nature">
      <NAME>EURUSD Curncy - Last Price</NAME>
      <OUTCOME>High</OUTCOME>
      <OUTCOME>Low</OUTCOME>
      <OUTCOME>Neutral</OUTCOME>
      <PROPERTY />
    </VARIABLE>
    <VARIABLE TYPE="nature">
      <NAME>LBEATREU Index - Last Price</NAME>
      <OUTCOME>High</OUTCOME>
      <OUTCOME>Low</OUTCOME>
      <OUTCOME>Neutral</OUTCOME>
      <PROPERTY />
    </VARIABLE>
    <VARIABLE TYPE="nature">
      <NAME>LP01TREU Index - Last Price</NAME>
      <OUTCOME>High</OUTCOME>
      <OUTCOME>Low</OUTCOME>
      <OUTCOME>Neutral</OUTCOME>
      <PROPERTY />
    </VARIABLE>
    <VARIABLE TYPE="nature">
      <NAME>MO1 Comdty - Last Price</NAME>
      <OUTCOME>High</OUTCOME>
      <OUTCOME>Low</OUTCOME>
      <OUTCOME>Neutral</OUTCOME>
      <PROPERTY />
    </VARIABLE>
    <VARIABLE TYPE="nature">
      <NAME>MXEU0EN Index - Last Price</NAME>
      <OUTCOME>High</OUTCOME>
      <OUTCOME>Low</OUTCOME>
      <OUTCOME>Neutral</OUTCOME>
      <PROPERTY />
    </VARIABLE>
    <VARIABLE TYPE="nature">
      <NAME>NG1 COMB Comdty - Last Price</NAME>
      <OUTCOME>High</OUTCOME>
      <OUTCOME>Low</OUTCOME>
      <OUTCOME>Neutral</OUTCOME>
      <PROPERTY />
    </VARIABLE>
    <VARIABLE TYPE="nature">
      <NAME>SPGTCED Index - Last Price</NAME>
      <OUTCOME>High</OUTCOME>
      <OUTCOME>Low</OUTCOME>
      <OUTCOME>Neutral</OUTCOME>
      <PROPERTY />
    </VARIABLE>
    <VARIABLE TYPE="nature">
      <NAME>SPX Index - Last Price</NAME>
      <OUTCOME>High</OUTCOME>
      <OUTCOME>Low</OUTCOME>
      <OUTCOME>Neutral</OUTCOME>
      <PROPERTY />
    </VARIABLE>
    <VARIABLE TYPE="nature">
      <NAME>SXXP Index - Last Price</NAME>
      <OUTCOME>High</OUTCOME>
      <OUTCOME>Low</OUTCOME>
      <OUTCOME>Neutral</OUTCOME>
      <PROPERTY />
    </VARIABLE>
    <VARIABLE TYPE="nature">
      <NAME>VIX Index - Last Price</NAME>
      <OUTCOME>High</OUTCOME>
      <OUTCOME>Low</OUTCOME>
      <OUTCOME>Neutral</OUTCOME>
      <PROPERTY />
    </VARIABLE>
    <VARIABLE TYPE="nature">
      <NAME>XA1 Comdty - Last Price</NAME>
      <OUTCOME>High</OUTCOME>
      <OUTCOME>Low</OUTCOME>
      <OUTCOME>Neutral</OUTCOME>
      <PROPERTY />
    </VARIABLE>
    <VARIABLE TYPE="nature">
      <NAME>XAU Curncy - Last Price</NAME>
      <OUTCOME>High</OUTCOME>
      <OUTCOME>Low</OUTCOME>
      <OUTCOME>Neutral</OUTCOME>
      <PROPERTY />
    </VARIABLE>
    <DEFINITION>
      <FOR>CAC Index - Last Price</FOR>
      <GIVEN>SPGTCED Index - Last Price</GIVEN>
      <GIVEN>SPX Index - Last Price</GIVEN>
      <GIVEN>SXXP Index - Last Price</GIVEN>
      <TABLE>0.8863636363636364 0.0 0.11363636363636363 0.0 0.7073170731707317 0.2926829268292683 0.14285714285714285 0.14906832298136646 0.7080745341614907 0.825 0.025 0.15 0.0 0.9090909090909091 0.09090909090909091 0.14 0.22 0.64 0.8813559322033898 0.0 0.11864406779661017 0.0 0.8269230769230769 0.17307692307692307 0.12 0.128 0.752 0.8793103448275862 0.0 0.1206896551724138 0.0 0.8205128205128205 0.1794871794871795 0.3617021276595745 0.0425531914893617 0.5957446808510638 0.7058823529411765 0.0196078431372549 0.27450980392156865 0.004728132387706856 0.9148936170212766 0.08037825059101655 0.13445378151260504 0.15126050420168066 0.7142857142857143 0.8269230769230769 0.0 0.17307692307692307 0.0 0.7651515151515151 0.23484848484848486 0.16379310344827586 0.14655172413793102 0.6896551724137931 0.8775510204081632 0.0 0.12244897959183673 0.0 0.75 0.25 0.1926605504587156 0.06422018348623854 0.7431192660550459 0.74 0.0 0.26 0.0 0.8865248226950354 0.11347517730496454 0.14814814814814814 0.1574074074074074 0.6944444444444444 0.7222222222222222 0.007936507936507936 0.2698412698412698 0.008771929824561403 0.8245614035087719 0.16666666666666666 0.12871287128712872 0.15346534653465346 0.7178217821782178 </TABLE>
    </DEFINITION>
    <DEFINITION>
      <FOR>CO1 Comdty - Last Price</FOR>
      <GIVEN>ECO Index - Last Price</GIVEN>
      <GIVEN>EURCNY Curncy - Last Price</GIVEN>
      <GIVEN>MXEU0EN Index - Last Price</GIVEN>
      <GIVEN>NG1 COMB Comdty - Last Price</GIVEN>
      <GIVEN>XA1 Comdty - Last Price</GIVEN>
      <TABLE>0.5714285714285714 0.17142857142857143 0.2571428571428571 0.6 0.1 0.3 0.4375 0.125 0.4375 0.5454545454545454 0.2727272727272727 0.18181818181818182 0.3888888888888889 0.16666666666666666 0.4444444444444444 0.5454545454545454 0.18181818181818182 0.2727272727272727 0.55 0.05 0.4 0.6 0.06666666666666667 0.3333333333333333 0.7222222222222222 0.05555555555555555 0.2222222222222222 0.3333333333333333 0.16666666666666666 0.5 0.3333333333333333 0.6666666666666666 0.0 0.2727272727272727 0.5454545454545454 0.18181818181818182 0.3333333333333333 0.4444444444444444 0.2222222222222222 0.18181818181818182 0.6363636363636364 0.18181818181818182 0.09090909090909091 0.36363636363636365 0.5454545454545454 0.3333333333333333 0.16666666666666666 0.5 0.3333333333333333 0.4444444444444444 0.2222222222222222 0.16666666666666666 0.4166666666666667 0.4166666666666667 0.5 0.0 0.5 0.11764705882352941 0.35294117647058826 0.5294117647058824 0.4 0.2 0.4 0.5 0.2 0.3 0.25 0.3333333333333333 0.4166666666666667 0.30434782608695654 0.13043478260869565 0.5652173913043478 0.2222222222222222 0.2222222222222222 0.5555555555555556 0.16666666666666666 0.25 0.5833333333333334 0.6666666666666666 0.2222222222222222 0.1111111111111111 0.6551724137931034 0.10344827586206896 0.2413793103448276 0.7142857142857143 0.14285714285714285 0.14285714285714285 0.5294117647058824 0.11764705882352941 0.35294117647058826 0.5789473684210527 0.15789473684210525 0.2631578947368421 0.4 0.3 0.3 0.5185185185185185 0.1111111111111111 0.37037037037037035 0.8095238095238095 0.047619047619047616 0.14285714285714285 0.6470588235294118 0.11764705882352941 0.23529411764705882 0.6666666666666666 0.1111111111111111 0.2222222222222222 0.4 0.2 0.4 0.16666666666666666 0.6666666666666666 0.16666666666666666 0.375 0.125 0.5 0.2857142857142857 0.2857142857142857 0.42857142857142855 0.16666666666666666 0.6666666666666666 0.16666666666666666 0.2 0.4 0.4 0.2222222222222222 0.4444444444444444 0.3333333333333333 0.0 0.8 0.2 0.3333333333333333 0.16666666666666666 0.5 0.42857142857142855 0.2857142857142857 0.2857142857142857 0.3333333333333333 0.26666666666666666 0.4 0.23076923076923078 0.3076923076923077 0.46153846153846156 0.0 0.4 0.6 0.5454545454545454 0.2727272727272727 0.18181818181818182 0.35714285714285715 0.21428571428571427 0.42857142857142855 0.1111111111111111 0.1111111111111111 0.7777777777777778 0.15384615384615385 0.6153846153846154 0.23076923076923078 0.2857142857142857 0.2857142857142857 0.42857142857142855 0.8 0.05 0.15 0.5333333333333333 0.13333333333333333 0.3333333333333333 0.6190476190476191 0.047619047619047616 0.3333333333333333 0.5 0.14285714285714285 0.35714285714285715 0.7647058823529411 0.11764705882352941 0.11764705882352941 0.7647058823529411 0.058823529411764705 0.17647058823529413 0.5294117647058824 0.11764705882352941 0.35294117647058826 0.5625 0.1875 0.25 0.5625 0.25 0.1875 0.0 0.625 0.375 0.07692307692307693 0.5384615384615384 0.38461538461538464 0.2 0.3 0.5 0.0 0.4444444444444444 0.5555555555555556 0.375 0.25 0.375 0.14285714285714285 0.42857142857142855 0.42857142857142855 0.25 0.5 0.25 0.125 0.625 0.25 0.2 0.4 0.4 0.3 0.3 0.4 0.3125 0.4375 0.25 0.4444444444444444 0.05555555555555555 0.5 0.5714285714285714 0.14285714285714285 0.2857142857142857 0.2727272727272727 0.18181818181818182 0.5454545454545454 0.2857142857142857 0.2857142857142857 0.42857142857142855 0.4 0.5 0.1 0.3333333333333333 0.25 0.4166666666666667 0.45454545454545453 0.09090909090909091 0.45454545454545453 0.7142857142857143 0.0 0.2857142857142857 1.0 0.0 0.0 0.5714285714285714 0.0 0.42857142857142855 0.5 0.0 0.5 0.875 0.0 0.125 0.375 0.25 0.375 0.7777777777777778 0.0 0.2222222222222222 0.3333333333333333 0.6666666666666666 0.0 0.6363636363636364 0.2727272727272727 0.09090909090909091 0.25 0.4166666666666667 0.3333333333333333 0.15789473684210525 0.6842105263157895 0.15789473684210525 0.05263157894736842 0.631578947368421 0.3157894736842105 0.0 0.625 0.375 0.10810810810810811 0.6756756756756757 0.21621621621621623 0.08695652173913043 0.782608695652174 0.13043478260869565 0.08333333333333333 0.6666666666666666 0.25 0.09375 0.53125 0.375 0.05555555555555555 0.6666666666666666 0.2777777777777778 0.07692307692307693 0.38461538461538464 0.5384615384615384 0.15789473684210525 0.3684210526315789 0.47368421052631576 0.6 0.1 0.3 0.13333333333333333 0.3333333333333333 0.5333333333333333 0.5454545454545454 0.18181818181818182 0.2727272727272727 0.3 0.5 0.2 0.5 0.375 0.125 0.4444444444444444 0.3333333333333333 0.2222222222222222 0.4444444444444444 0.1111111111111111 0.4444444444444444 0.6 0.0 0.4 0.5714285714285714 0.2857142857142857 0.14285714285714285 0.2857142857142857 0.0 0.7142857142857143 0.35294117647058826 0.29411764705882354 0.35294117647058826 0.14285714285714285 0.7142857142857143 0.14285714285714285 0.14285714285714285 0.2857142857142857 0.5714285714285714 0.6 0.13333333333333333 0.26666666666666666 0.7142857142857143 0.0 0.2857142857142857 0.6666666666666666 0.1111111111111111 0.2222222222222222 0.14285714285714285 0.5714285714285714 0.2857142857142857 0.20833333333333334 0.4166666666666667 0.375 0.16666666666666666 0.5 0.3333333333333333 0.29411764705882354 0.5294117647058824 0.17647058823529413 0.11538461538461539 0.6538461538461539 0.23076923076923078 0.14285714285714285 0.6666666666666666 0.19047619047619047 0.26666666666666666 0.4 0.3333333333333333 0.058823529411764705 0.7647058823529411 0.17647058823529413 0.10526315789473684 0.6842105263157895 0.21052631578947367 0.18181818181818182 0.2727272727272727 0.5454545454545454 0.2 0.4 0.4 0.23529411764705882 0.11764705882352941 0.6470588235294118 0.1111111111111111 0.6666666666666666 0.2222222222222222 0.2727272727272727 0.5454545454545454 0.18181818181818182 0.1111111111111111 0.4444444444444444 0.4444444444444444 0.4 0.3 0.3 0.2 0.2 0.6 0.25 0.3333333333333333 0.4166666666666667 0.8181818181818182 0.09090909090909091 0.09090909090909091 0.25 0.5 0.25 0.3333333333333333 0.0 0.6666666666666666 0.5 0.1 0.4 0.375 0.25 0.375 0.0 0.2 0.8 0.42857142857142855 0.14285714285714285 0.42857142857142855 0.5 0.375 0.125 0.14285714285714285 0.5714285714285714 0.2857142857142857 0.11764705882352941 0.29411764705882354 0.5882352941176471 0.25 0.5 0.25 0.21428571428571427 0.5714285714285714 0.21428571428571427 0.0 0.92 0.08 0.12 0.64 0.24 0.10526315789473684 0.7894736842105263 0.10526315789473684 0.06666666666666667 0.7333333333333333 0.2 0.16666666666666666 0.5 0.3333333333333333 0.0 0.7142857142857143 0.2857142857142857 0.23076923076923078 0.3076923076923077 0.46153846153846156 0.3181818181818182 0.3181818181818182 0.36363636363636365 0.3076923076923077 0.46153846153846156 0.23076923076923078 0.3333333333333333 0.5833333333333334 0.08333333333333333 0.14285714285714285 0.7142857142857143 0.14285714285714285 0.35714285714285715 0.42857142857142855 0.21428571428571427 0.09090909090909091 0.2727272727272727 0.6363636363636364 0.2222222222222222 0.4444444444444444 0.3333333333333333 0.3076923076923077 0.15384615384615385 0.5384615384615384 0.5357142857142857 0.14285714285714285 0.32142857142857145 0.5333333333333333 0.06666666666666667 0.4 0.25 0.375 0.375 0.625 0.0 0.375 0.5 0.0 0.5 0.5 0.4166666666666667 0.08333333333333333 0.35714285714285715 0.21428571428571427 0.42857142857142855 0.4 0.1 0.5 0.6666666666666666 0.0 0.3333333333333333 0.16666666666666666 0.5833333333333334 0.25 0.07692307692307693 0.46153846153846156 0.46153846153846156 0.07692307692307693 0.15384615384615385 0.7692307692307693 0.18181818181818182 0.5454545454545454 0.2727272727272727 0.15 0.6 0.25 0.0 0.75 0.25 0.2727272727272727 0.36363636363636365 0.36363636363636365 0.0 0.5454545454545454 0.45454545454545453 0.23076923076923078 0.6153846153846154 0.15384615384615385 0.625 0.25 0.125 0.6666666666666666 0.0 0.3333333333333333 0.8571428571428571 0.14285714285714285 0.0 0.3333333333333333 0.5555555555555556 0.1111111111111111 0.18181818181818182 0.36363636363636365 0.45454545454545453 0.38461538461538464 0.3076923076923077 0.3076923076923077 0.375 0.1875 0.4375 0.2857142857142857 0.35714285714285715 0.35714285714285715 0.3333333333333333 0.1111111111111111 0.5555555555555556 0.5294117647058824 0.17647058823529413 0.29411764705882354 0.7272727272727273 0.09090909090909091 0.18181818181818182 0.42857142857142855 0.14285714285714285 0.42857142857142855 0.46153846153846156 0.15384615384615385 0.38461538461538464 0.4 0.1 0.5 0.6 0.2 0.2 0.5454545454545454 0.18181818181818182 0.2727272727272727 0.375 0.375 0.25 0.47619047619047616 0.09523809523809523 0.42857142857142855 0.5 0.2 0.3 0.1111111111111111 0.5555555555555556 0.3333333333333333 0.25 0.25 0.5 0.09090909090909091 0.6363636363636364 0.2727272727272727 0.13333333333333333 0.5333333333333333 0.3333333333333333 0.1 0.5 0.4 0.09090909090909091 0.7272727272727273 0.18181818181818182 0.07692307692307693 0.46153846153846156 0.46153846153846156 0.36363636363636365 0.5454545454545454 0.09090909090909091 0.4166666666666667 0.25 0.3333333333333333 0.16666666666666666 0.4166666666666667 0.4166666666666667 0.2 0.2 0.6 0.1 0.4 0.5 0.6 0.2 0.2 0.4375 0.1875 0.375 0.3333333333333333 0.3888888888888889 0.2777777777777778 0.2222222222222222 0.3888888888888889 0.3888888888888889 0.16666666666666666 0.3888888888888889 0.4444444444444444 0.625 0.25 0.125 0.5714285714285714 0.14285714285714285 0.2857142857142857 0.5555555555555556 0.1111111111111111 0.3333333333333333 0.16666666666666666 0.16666666666666666 0.6666666666666666 0.6153846153846154 0.23076923076923078 0.15384615384615385 0.7333333333333333 0.06666666666666667 0.2 0.8181818181818182 0.09090909090909091 0.09090909090909091 0.6923076923076923 0.3076923076923077 0.0 0.5384615384615384 0.07692307692307693 0.38461538461538464 0.16666666666666666 0.4166666666666667 0.4166666666666667 0.0 0.8333333333333334 0.16666666666666666 0.14285714285714285 0.5714285714285714 0.2857142857142857 0.11764705882352941 0.4117647058823529 0.47058823529411764 0.0 0.7777777777777778 0.2222222222222222 0.07692307692307693 0.46153846153846156 0.46153846153846156 0.14285714285714285 0.5 0.35714285714285715 0.0 0.46153846153846156 0.5384615384615384 0.0 0.6428571428571429 0.35714285714285715 0.3076923076923077 0.38461538461538464 0.3076923076923077 0.15789473684210525 0.3157894736842105 0.5263157894736842 0.2 0.26666666666666666 0.5333333333333333 0.3333333333333333 0.4166666666666667 0.25 0.3125 0.3125 0.375 0.10526315789473684 0.42105263157894735 0.47368421052631576 0.16 0.28 0.56 0.3 0.4 0.3 0.2777777777777778 0.2222222222222222 0.5 </TABLE>
    </DEFINITION>
    <DEFINITION>
      <FOR>DAX Index - Last Price</FOR>
      <GIVEN>CAC Index - Last Price</GIVEN>
      <GIVEN>SXXP Index - Last Price</GIVEN>
      <GIVEN>VIX Index - Last Price</GIVEN>
      <TABLE>0.8208955223880597 0.0 0.1791044776119403 0.8702127659574468 0.002127659574468085 0.1276595744680851 0.8966789667896679 0.0 0.1033210332103321 0.0 0.5 0.5 0.3333333333333333 0.3333333333333333 0.3333333333333333 0.0 0.0 1.0 0.4358974358974359 0.05128205128205128 0.5128205128205128 0.4 0.06153846153846154 0.5384615384615384 0.35714285714285715 0.0 0.6428571428571429 1.0 0.0 0.0 0.0 0.0 1.0 1.0 0.0 0.0 0.0 0.9163424124513618 0.08365758754863813 0.008695652173913044 0.8347826086956521 0.1565217391304348 0.0 0.8320610687022901 0.16793893129770993 0.021739130434782608 0.5 0.4782608695652174 0.05128205128205128 0.358974358974359 0.5897435897435898 0.05172413793103448 0.4827586206896552 0.46551724137931033 0.46153846153846156 0.02564102564102564 0.5128205128205128 0.5454545454545454 0.015151515151515152 0.4393939393939394 0.4727272727272727 0.0 0.5272727272727272 0.0 0.5769230769230769 0.4230769230769231 0.037037037037037035 0.5185185185185185 0.4444444444444444 0.03125 0.484375 0.484375 0.12322274881516587 0.1848341232227488 0.6919431279620853 0.18110236220472442 0.11023622047244094 0.7086614173228346 0.1821561338289963 0.13011152416356878 0.6877323420074349 </TABLE>
    </DEFINITION>
    <DEFINITION>
      <FOR>ECO Index - Last Price</FOR>
      <GIVEN>EURCNY Curncy - Last Price</GIVEN>
      <GIVEN>NG1 COMB Comdty - Last Price</GIVEN>
      <GIVEN>SPGTCED Index - Last Price</GIVEN>
      <GIVEN>SPX Index - Last Price</GIVEN>
      <TABLE>0.7727272727272727 0.011363636363636364 0.2159090909090909 0.13333333333333333 0.4 0.4666666666666667 0.631578947368421 0.02631578947368421 0.34210526315789475 0.26666666666666666 0.4 0.3333333333333333 0.0 0.8518518518518519 0.14814814814814814 0.058823529411764705 0.6764705882352942 0.2647058823529412 0.5625 0.09375 0.34375 0.14285714285714285 0.4 0.45714285714285713 0.34 0.16 0.5 0.8709677419354839 0.0 0.12903225806451613 0.625 0.1875 0.1875 0.6785714285714286 0.03571428571428571 0.2857142857142857 0.2 0.3333333333333333 0.4666666666666667 0.01282051282051282 0.8974358974358975 0.08974358974358974 0.13333333333333333 0.43333333333333335 0.43333333333333335 0.5555555555555556 0.1111111111111111 0.3333333333333333 0.05405405405405406 0.5945945945945946 0.35135135135135137 0.1702127659574468 0.3617021276595745 0.46808510638297873 0.8088235294117647 0.058823529411764705 0.1323529411764706 0.36363636363636365 0.36363636363636365 0.2727272727272727 0.631578947368421 0.05263157894736842 0.3157894736842105 0.08333333333333333 0.6666666666666666 0.25 0.03076923076923077 0.8923076923076924 0.07692307692307693 0.043478260869565216 0.5652173913043478 0.391304347826087 0.2972972972972973 0.08108108108108109 0.6216216216216216 0.10714285714285714 0.39285714285714285 0.5 0.16363636363636364 0.14545454545454545 0.6909090909090909 0.7704918032786885 0.01639344262295082 0.21311475409836064 0.5 0.125 0.375 0.6666666666666666 0.06666666666666667 0.26666666666666666 0.2 0.35 0.45 0.0 0.8615384615384616 0.13846153846153847 0.12121212121212122 0.6060606060606061 0.2727272727272727 0.48484848484848486 0.030303030303030304 0.48484848484848486 0.17647058823529413 0.4117647058823529 0.4117647058823529 0.21428571428571427 0.21428571428571427 0.5714285714285714 0.8450704225352113 0.04225352112676056 0.11267605633802817 0.3125 0.375 0.3125 0.47058823529411764 0.17647058823529413 0.35294117647058826 0.09090909090909091 0.5454545454545454 0.36363636363636365 0.023529411764705882 0.8235294117647058 0.15294117647058825 0.06060606060606061 0.5757575757575758 0.36363636363636365 0.6222222222222222 0.044444444444444446 0.3333333333333333 0.09375 0.375 0.53125 0.2631578947368421 0.07894736842105263 0.6578947368421053 0.7636363636363637 0.01818181818181818 0.21818181818181817 0.23076923076923078 0.23076923076923078 0.5384615384615384 0.6363636363636364 0.06060606060606061 0.30303030303030304 0.047619047619047616 0.38095238095238093 0.5714285714285714 0.013513513513513514 0.8648648648648649 0.12162162162162163 0.08888888888888889 0.4444444444444444 0.4666666666666667 0.2413793103448276 0.06896551724137931 0.6896551724137931 0.0 0.41379310344827586 0.5862068965517241 0.30357142857142855 0.125 0.5714285714285714 0.8082191780821918 0.0547945205479452 0.136986301369863 0.42105263157894735 0.21052631578947367 0.3684210526315789 0.6756756756756757 0.08108108108108109 0.24324324324324326 0.19047619047619047 0.38095238095238093 0.42857142857142855 0.04 0.84 0.12 0.03125 0.5 0.46875 0.625 0.03125 0.34375 0.12121212121212122 0.5757575757575758 0.30303030303030304 0.17391304347826086 0.2391304347826087 0.5869565217391305 0.8214285714285714 0.017857142857142856 0.16071428571428573 0.05555555555555555 0.3333333333333333 0.6111111111111112 0.5945945945945946 0.08108108108108109 0.32432432432432434 0.17647058823529413 0.29411764705882354 0.5294117647058824 0.0 0.7777777777777778 0.2222222222222222 0.05555555555555555 0.5 0.4444444444444444 0.4444444444444444 0.1111111111111111 0.4444444444444444 0.21428571428571427 0.5 0.2857142857142857 0.20454545454545456 0.2727272727272727 0.5227272727272727 0.734375 0.03125 0.234375 0.3333333333333333 0.3333333333333333 0.3333333333333333 0.2972972972972973 0.08108108108108109 0.6216216216216216 0.3333333333333333 0.16666666666666666 0.5 0.06 0.82 0.12 0.14705882352941177 0.5882352941176471 0.2647058823529412 0.38235294117647056 0.029411764705882353 0.5882352941176471 0.27586206896551724 0.4482758620689655 0.27586206896551724 0.15625 0.109375 0.734375 </TABLE>
    </DEFINITION>
    <DEFINITION>
      <FOR>EURCHF Curncy - Last Price</FOR>
      <GIVEN>DAX Index - Last Price</GIVEN>
      <GIVEN>EURGBP Curncy - Last Price</GIVEN>
      <GIVEN>EURUSD Curncy - Last Price</GIVEN>
      <GIVEN>LBEATREU Index - Last Price</GIVEN>
      <GIVEN>SPGTCED Index - Last Price</GIVEN>
      <TABLE>0.4074074074074074 0.25925925925925924 0.3333333333333333 0.5 0.0 0.5 0.29411764705882354 0.23529411764705882 0.47058823529411764 0.5517241379310345 0.06896551724137931 0.3793103448275862 0.5714285714285714 0.2857142857142857 0.14285714285714285 0.7333333333333333 0.06666666666666667 0.2 0.6 0.2 0.2 0.3333333333333333 0.3333333333333333 0.3333333333333333 0.4166666666666667 0.16666666666666666 0.4166666666666667 0.4 0.1 0.5 0.75 0.25 0.0 0.2 0.6 0.2 0.2857142857142857 0.2857142857142857 0.42857142857142855 0.5 0.0 0.5 0.0 0.5 0.5 0.25 0.25 0.5 0.5 0.0 0.5 0.2857142857142857 0.14285714285714285 0.5714285714285714 0.26666666666666666 0.3333333333333333 0.4 0.0 0.4 0.6 0.36363636363636365 0.18181818181818182 0.45454545454545453 0.9090909090909091 0.0 0.09090909090909091 0.4 0.2 0.4 0.8333333333333334 0.16666666666666666 0.0 0.38461538461538464 0.23076923076923078 0.38461538461538464 0.2222222222222222 0.0 0.7777777777777778 0.1111111111111111 0.3333333333333333 0.5555555555555556 0.391304347826087 0.391304347826087 0.21739130434782608 1.0 0.0 0.0 0.25 0.0 0.75 0.4782608695652174 0.13043478260869565 0.391304347826087 0.8 0.2 0.0 0.16666666666666666 0.3333333333333333 0.5 0.35294117647058826 0.35294117647058826 0.29411764705882354 0.5 0.0 0.5 0.14285714285714285 0.42857142857142855 0.42857142857142855 0.25806451612903225 0.4838709677419355 0.25806451612903225 0.1 0.7 0.2 0.1 0.5333333333333333 0.36666666666666664 0.43333333333333335 0.2 0.36666666666666664 0.29411764705882354 0.4117647058823529 0.29411764705882354 0.4 0.26666666666666666 0.3333333333333333 0.25806451612903225 0.41935483870967744 0.3225806451612903 0.11764705882352941 0.47058823529411764 0.4117647058823529 0.4666666666666667 0.2 0.3333333333333333 0.36363636363636365 0.3181818181818182 0.3181818181818182 0.0 0.5 0.5 0.42857142857142855 0.2857142857142857 0.2857142857142857 0.3888888888888889 0.3333333333333333 0.2777777777777778 0.75 0.0 0.25 0.35714285714285715 0.42857142857142855 0.21428571428571427 0.6111111111111112 0.16666666666666666 0.2222222222222222 0.125 0.375 0.5 0.21428571428571427 0.35714285714285715 0.42857142857142855 0.5652173913043478 0.2608695652173913 0.17391304347826086 0.6 0.0 0.4 0.75 0.25 0.0 0.6086956521739131 0.13043478260869565 0.2608695652173913 0.6 0.2 0.2 0.4166666666666667 0.25 0.3333333333333333 0.6 0.16666666666666666 0.23333333333333334 0.6666666666666666 0.0 0.3333333333333333 0.4 0.2 0.4 0.4666666666666667 0.26666666666666666 0.26666666666666666 0.2 0.6 0.2 0.2777777777777778 0.4444444444444444 0.2777777777777778 0.13333333333333333 0.4 0.4666666666666667 0.45454545454545453 0.45454545454545453 0.09090909090909091 0.5 0.3 0.2 0.29411764705882354 0.5294117647058824 0.17647058823529413 0.6 0.2 0.2 0.2 0.26666666666666666 0.5333333333333333 0.35 0.25 0.4 0.3333333333333333 0.5 0.16666666666666666 0.35714285714285715 0.14285714285714285 0.5 0.46153846153846156 0.15384615384615385 0.38461538461538464 0.5 0.0 0.5 0.5 0.08333333333333333 0.4166666666666667 0.6451612903225806 0.12903225806451613 0.22580645161290322 0.2222222222222222 0.2222222222222222 0.5555555555555556 0.3076923076923077 0.3076923076923077 0.38461538461538464 0.5384615384615384 0.23076923076923078 0.23076923076923078 0.24242424242424243 0.36363636363636365 0.3939393939393939 0.2727272727272727 0.36363636363636365 0.36363636363636365 0.75 0.125 0.125 0.4857142857142857 0.2 0.3142857142857143 0.4583333333333333 0.3333333333333333 0.20833333333333334 0.25 0.3333333333333333 0.4166666666666667 0.40540540540540543 0.35135135135135137 0.24324324324324326 0.5 0.08333333333333333 0.4166666666666667 0.4 0.4 0.2 0.1 0.7 0.2 0.0 0.6 0.4 0.2857142857142857 0.42857142857142855 0.2857142857142857 0.375 0.2916666666666667 0.3333333333333333 0.6666666666666666 0.3333333333333333 0.0 0.0 1.0 0.0 0.35294117647058826 0.47058823529411764 0.17647058823529413 0.0 0.3333333333333333 0.6666666666666666 0.0 0.5714285714285714 0.42857142857142855 0.24 0.48 0.28 0.2 0.4 0.4 0.2857142857142857 0.5714285714285714 0.14285714285714285 0.4230769230769231 0.2692307692307692 0.3076923076923077 0.4666666666666667 0.2 0.3333333333333333 0.4 0.2 0.4 0.19047619047619047 0.42857142857142855 0.38095238095238093 0.2857142857142857 0.14285714285714285 0.5714285714285714 0.2857142857142857 0.42857142857142855 0.2857142857142857 0.0 0.7272727272727273 0.2727272727272727 0.25 0.25 0.5 0.3333333333333333 0.3333333333333333 0.3333333333333333 0.26666666666666666 0.4 0.3333333333333333 0.25 0.5 0.25 0.75 0.25 0.0 0.42857142857142855 0.42857142857142855 0.14285714285714285 0.4 0.2 0.4 0.2222222222222222 0.6666666666666666 0.1111111111111111 0.16216216216216217 0.6486486486486487 0.1891891891891892 0.07142857142857142 0.6428571428571429 0.2857142857142857 0.2 0.2 0.6 0.10714285714285714 0.6071428571428571 0.2857142857142857 0.17647058823529413 0.5294117647058824 0.29411764705882354 0.0 0.8571428571428571 0.14285714285714285 0.2 0.55 0.25 0.0 0.5 0.5 0.5 0.25 0.25 0.125 0.375 0.5 0.42857142857142855 0.2857142857142857 0.2857142857142857 0.5 0.5 0.0 0.47058823529411764 0.17647058823529413 0.35294117647058826 0.42857142857142855 0.5714285714285714 0.0 0.0 0.2 0.8 0.5 0.21428571428571427 0.2857142857142857 0.125 0.625 0.25 0.2 0.3 0.5 0.6923076923076923 0.23076923076923078 0.07692307692307693 0.0 0.5 0.5 0.46153846153846156 0.15384615384615385 0.38461538461538464 0.2777777777777778 0.3888888888888889 0.3333333333333333 0.38461538461538464 0.15384615384615385 0.46153846153846156 0.6666666666666666 0.2222222222222222 0.1111111111111111 0.18181818181818182 0.5454545454545454 0.2727272727272727 0.4 0.3333333333333333 0.26666666666666666 0.6666666666666666 0.3333333333333333 0.0 0.04 0.64 0.32 0.1 0.6 0.3 0.5 0.25 0.25 0.11538461538461539 0.6153846153846154 0.2692307692307692 0.42857142857142855 0.5 0.07142857142857142 0.3333333333333333 0.3333333333333333 0.3333333333333333 0.15789473684210525 0.7368421052631579 0.10526315789473684 0.3333333333333333 0.4444444444444444 0.2222222222222222 0.3333333333333333 0.5 0.16666666666666666 0.16666666666666666 0.4166666666666667 0.4166666666666667 0.47058823529411764 0.35294117647058826 0.17647058823529413 0.2 0.4 0.4 0.35294117647058826 0.47058823529411764 0.17647058823529413 0.13333333333333333 0.26666666666666666 0.6 0.5 0.5 0.0 0.16666666666666666 0.25 0.5833333333333334 0.36363636363636365 0.2727272727272727 0.36363636363636365 0.45454545454545453 0.36363636363636365 0.18181818181818182 0.375 0.0 0.625 0.6153846153846154 0.0 0.38461538461538464 0.55 0.1 0.35 0.45454545454545453 0.09090909090909091 0.45454545454545453 0.5789473684210527 0.05263157894736842 0.3684210526315789 0.34782608695652173 0.21739130434782608 0.43478260869565216 0.4166666666666667 0.25 0.3333333333333333 0.5384615384615384 0.038461538461538464 0.4230769230769231 0.25 0.5 0.25 0.5 0.5 0.0 0.2222222222222222 0.5555555555555556 0.2222222222222222 0.4 0.2 0.4 0.2727272727272727 0.2727272727272727 0.45454545454545453 0.0 0.5555555555555556 0.4444444444444444 0.4 0.2 0.4 0.125 0.5 0.375 0.125 0.5 0.375 0.5384615384615384 0.23076923076923078 0.23076923076923078 0.4166666666666667 0.25 0.3333333333333333 0.4 0.3 0.3 0.38461538461538464 0.23076923076923078 0.38461538461538464 0.35714285714285715 0.14285714285714285 0.5 0.3888888888888889 0.3333333333333333 0.2777777777777778 0.3333333333333333 0.4 0.26666666666666666 0.3333333333333333 0.26666666666666666 0.4 0.07142857142857142 0.5 0.42857142857142855 0.45454545454545453 0.2727272727272727 0.2727272727272727 0.0 0.0 1.0 0.25 0.5 0.25 0.36363636363636365 0.2727272727272727 0.36363636363636365 0.8571428571428571 0.14285714285714285 0.0 0.2857142857142857 0.2857142857142857 0.42857142857142855 0.2727272727272727 0.2727272727272727 0.45454545454545453 0.375 0.5 0.125 0.42857142857142855 0.2857142857142857 0.2857142857142857 0.15384615384615385 0.7692307692307693 0.07692307692307693 0.15384615384615385 0.6153846153846154 0.23076923076923078 0.10344827586206896 0.4827586206896552 0.41379310344827586 0.16666666666666666 0.16666666666666666 0.6666666666666666 0.22727272727272727 0.4090909090909091 0.36363636363636365 0.10526315789473684 0.47368421052631576 0.42105263157894735 0.38461538461538464 0.3076923076923077 0.3076923076923077 0.2222222222222222 0.5555555555555556 0.2222222222222222 0.1935483870967742 0.41935483870967744 0.3870967741935484 0.2727272727272727 0.6363636363636364 0.09090909090909091 0.18181818181818182 0.2727272727272727 0.5454545454545454 0.21428571428571427 0.5714285714285714 0.21428571428571427 0.42857142857142855 0.0 0.5714285714285714 0.5 0.14285714285714285 0.35714285714285715 0.4375 0.1875 0.375 0.2 0.4 0.4 0.3 0.1 0.6 0.3333333333333333 0.23809523809523808 0.42857142857142855 0.5 0.25 0.25 0.5 0.3333333333333333 0.16666666666666666 0.35714285714285715 0.42857142857142855 0.21428571428571427 0.6363636363636364 0.0 0.36363636363636365 0.2 0.4 0.4 0.25 0.16666666666666666 0.5833333333333334 0.45454545454545453 0.3181818181818182 0.22727272727272727 0.42857142857142855 0.0 0.5714285714285714 0.4666666666666667 0.2 0.3333333333333333 0.2857142857142857 0.42857142857142855 0.2857142857142857 0.0 0.7 0.3 0.07142857142857142 0.35714285714285715 0.5714285714285714 0.25 0.5 0.25 0.15384615384615385 0.23076923076923078 0.6153846153846154 0.16666666666666666 0.4166666666666667 0.4166666666666667 0.2222222222222222 0.2222222222222222 0.5555555555555556 0.0 0.6 0.4 0.14285714285714285 0.35714285714285715 0.5 0.2 0.6 0.2 0.15384615384615385 0.15384615384615385 0.6923076923076923 0.29411764705882354 0.4117647058823529 0.29411764705882354 0.2 0.13333333333333333 0.6666666666666666 0.18181818181818182 0.2727272727272727 0.5454545454545454 0.38095238095238093 0.23809523809523808 0.38095238095238093 0.4444444444444444 0.2222222222222222 0.3333333333333333 0.35714285714285715 0.2857142857142857 0.35714285714285715 0.17857142857142858 0.32142857142857145 0.5 </TABLE>
    </DEFINITION>
    <DEFINITION>
      <FOR>EURCNY Curncy - Last Price</FOR>
      <TABLE>0.33354755784061696 0.3332262210796915 0.3332262210796915 </TABLE>
    </DEFINITION>
    <DEFINITION>
      <FOR>EURGBP Curncy - Last Price</FOR>
      <GIVEN>EURCNY Curncy - Last Price</GIVEN>
      <GIVEN>EURUSD Curncy - Last Price</GIVEN>
      <GIVEN>LP01TREU Index - Last Price</GIVEN>
      <GIVEN>NG1 COMB Comdty - Last Price</GIVEN>
      <GIVEN>SPGTCED Index - Last Price</GIVEN>
      <TABLE>0.2222222222222222 0.4444444444444444 0.3333333333333333 0.08333333333333333 0.6666666666666666 0.25 0.25 0.4375 0.3125 0.25 0.39285714285714285 0.35714285714285715 0.2857142857142857 0.5714285714285714 0.14285714285714285 0.4117647058823529 0.35294117647058826 0.23529411764705882 0.53125 0.1875 0.28125 0.25 0.375 0.375 0.16666666666666666 0.4444444444444444 0.3888888888888889 0.75 0.0 0.25 0.7391304347826086 0.0 0.2608695652173913 0.5757575757575758 0.06060606060606061 0.36363636363636365 0.3333333333333333 0.16666666666666666 0.5 0.6388888888888888 0.1111111111111111 0.25 0.8125 0.0625 0.125 0.375 0.1875 0.4375 0.6176470588235294 0.11764705882352941 0.2647058823529412 0.68 0.0 0.32 0.41025641025641024 0.20512820512820512 0.38461538461538464 0.375 0.4375 0.1875 0.5 0.16666666666666666 0.3333333333333333 0.36 0.28 0.36 0.5 0.13636363636363635 0.36363636363636365 0.5333333333333333 0.2 0.26666666666666666 0.21739130434782608 0.30434782608695654 0.4782608695652174 0.5 0.3 0.2 0.4583333333333333 0.20833333333333334 0.3333333333333333 0.0 0.8 0.2 0.2 0.6 0.2 0.0 0.3333333333333333 0.6666666666666666 0.16666666666666666 0.3333333333333333 0.5 0.0 0.75 0.25 0.0 0.8333333333333334 0.16666666666666666 0.2 0.6 0.2 0.0 0.6666666666666666 0.3333333333333333 0.0 0.5 0.5 0.25 0.25 0.5 0.6666666666666666 0.0 0.3333333333333333 0.0 0.3333333333333333 0.6666666666666666 0.5 0.0 0.5 0.375 0.25 0.375 0.0 0.3333333333333333 0.6666666666666666 0.3333333333333333 0.0 0.6666666666666666 0.5 0.0 0.5 0.25 0.25 0.5 0.6666666666666666 0.0 0.3333333333333333 0.0 0.5 0.5 0.0 0.5 0.5 1.0 0.0 0.0 0.25 0.5 0.25 0.0 0.25 0.75 0.5 0.0 0.5 0.5 0.25 0.25 0.2 0.6 0.2 0.08333333333333333 0.5 0.4166666666666667 0.42857142857142855 0.42857142857142855 0.14285714285714285 0.4 0.4666666666666667 0.13333333333333333 0.625 0.25 0.125 0.25 0.25 0.5 0.1111111111111111 0.2222222222222222 0.6666666666666666 0.125 0.4375 0.4375 0.3333333333333333 0.6666666666666666 0.0 0.1 0.5 0.4 0.2857142857142857 0.2857142857142857 0.42857142857142855 0.7333333333333333 0.06666666666666667 0.2 0.46153846153846156 0.0 0.5384615384615384 0.875 0.0 0.125 0.6842105263157895 0.15789473684210525 0.15789473684210525 0.5384615384615384 0.15384615384615385 0.3076923076923077 0.8888888888888888 0.0 0.1111111111111111 0.6111111111111112 0.05555555555555555 0.3333333333333333 0.5 0.16666666666666666 0.3333333333333333 0.3333333333333333 0.5 0.16666666666666666 0.5 0.3 0.2 0.25 0.375 0.375 0.5 0.2 0.3 0.7142857142857143 0.14285714285714285 0.14285714285714285 0.16666666666666666 0.25 0.5833333333333334 0.1111111111111111 0.5555555555555556 0.3333333333333333 0.375 0.375 0.25 0.3333333333333333 0.2222222222222222 0.4444444444444444 0.25 0.5 0.25 0.0 1.0 0.0 0.2 0.0 0.8 0.4 0.0 0.6 1.0 0.0 0.0 0.3333333333333333 0.3333333333333333 0.3333333333333333 0.2857142857142857 0.2857142857142857 0.42857142857142855 0.5 0.0 0.5 0.4 0.0 0.6 0.8 0.0 0.2 0.875 0.125 0.0 0.6666666666666666 0.3333333333333333 0.0 1.0 0.0 0.0 0.7142857142857143 0.14285714285714285 0.14285714285714285 1.0 0.0 0.0 0.6666666666666666 0.3333333333333333 0.0 1.0 0.0 0.0 0.6666666666666666 0.0 0.3333333333333333 0.0 0.2 0.8 0.3333333333333333 0.3333333333333333 0.3333333333333333 0.6 0.0 0.4 0.1 0.0 0.9 0.0 0.5 0.5 0.3333333333333333 0.0 0.6666666666666666 0.625 0.125 0.25 0.5 0.5 0.0 0.6666666666666666 0.16666666666666666 0.16666666666666666 0.0625 0.59375 0.34375 0.0 0.8 0.2 0.0 0.8095238095238095 0.19047619047619047 0.03571428571428571 0.6071428571428571 0.35714285714285715 0.08 0.84 0.08 0.08571428571428572 0.6857142857142857 0.22857142857142856 0.125 0.5416666666666666 0.3333333333333333 0.1111111111111111 0.8333333333333334 0.05555555555555555 0.125 0.5416666666666666 0.3333333333333333 0.0 0.6 0.4 0.30303030303030304 0.3939393939393939 0.30303030303030304 0.35294117647058826 0.29411764705882354 0.35294117647058826 0.5454545454545454 0.2727272727272727 0.18181818181818182 0.45454545454545453 0.18181818181818182 0.36363636363636365 0.26666666666666666 0.26666666666666666 0.4666666666666667 0.4166666666666667 0.25 0.3333333333333333 0.37777777777777777 0.24444444444444444 0.37777777777777777 0.26666666666666666 0.3333333333333333 0.4 0.17391304347826086 0.5652173913043478 0.2608695652173913 0.25 0.42857142857142855 0.32142857142857145 0.22727272727272727 0.5909090909090909 0.18181818181818182 0.38461538461538464 0.38461538461538464 0.23076923076923078 0.2222222222222222 0.4444444444444444 0.3333333333333333 0.09523809523809523 0.42857142857142855 0.47619047619047616 0.2777777777777778 0.5 0.2222222222222222 0.15384615384615385 0.46153846153846156 0.38461538461538464 0.1111111111111111 0.5185185185185185 0.37037037037037035 0.1 0.6 0.3 0.2222222222222222 0.3333333333333333 0.4444444444444444 0.07692307692307693 0.46153846153846156 0.46153846153846156 0.2 0.3333333333333333 0.4666666666666667 0.0 0.6363636363636364 0.36363636363636365 0.08333333333333333 0.5833333333333334 0.3333333333333333 0.23076923076923078 0.46153846153846156 0.3076923076923077 0.25 0.625 0.125 0.0 0.46153846153846156 0.5384615384615384 0.6666666666666666 0.16666666666666666 0.16666666666666666 0.21428571428571427 0.35714285714285715 0.42857142857142855 0.7777777777777778 0.0 0.2222222222222222 0.0 0.3333333333333333 0.6666666666666666 0.5833333333333334 0.0 0.4166666666666667 0.42857142857142855 0.14285714285714285 0.42857142857142855 1.0 0.0 0.0 0.5384615384615384 0.07692307692307693 0.38461538461538464 0.3333333333333333 0.0 0.6666666666666666 0.25 0.125 0.625 0.3333333333333333 0.5 0.16666666666666666 0.14285714285714285 0.42857142857142855 0.42857142857142855 0.3333333333333333 0.2 0.4666666666666667 0.5 0.125 0.375 0.21428571428571427 0.2857142857142857 0.5 0.3076923076923077 0.3076923076923077 0.38461538461538464 0.35 0.15 0.5 0.3333333333333333 0.1111111111111111 0.5555555555555556 0.2857142857142857 0.38095238095238093 0.3333333333333333 0.0 0.5 0.5 0.3333333333333333 0.4166666666666667 0.25 0.08333333333333333 0.6666666666666666 0.25 0.42857142857142855 0.14285714285714285 0.42857142857142855 0.14285714285714285 0.42857142857142855 0.42857142857142855 0.2727272727272727 0.4090909090909091 0.3181818181818182 0.25 0.25 0.5 0.0 0.5555555555555556 0.4444444444444444 0.5384615384615384 0.15384615384615385 0.3076923076923077 0.625 0.1875 0.1875 0.5 0.0 0.5 0.6923076923076923 0.07692307692307693 0.23076923076923078 0.6428571428571429 0.07142857142857142 0.2857142857142857 0.375 0.25 0.375 0.6666666666666666 0.08333333333333333 0.25 0.7142857142857143 0.0 0.2857142857142857 0.75 0.25 0.0 0.4166666666666667 0.08333333333333333 0.5 0.16666666666666666 0.3333333333333333 0.5 0.4 0.1 0.5 0.5 0.2857142857142857 0.21428571428571427 0.7142857142857143 0.14285714285714285 0.14285714285714285 0.5 0.0 0.5 0.4 0.13333333333333333 0.4666666666666667 0.5 0.25 0.25 0.6 0.2 0.2 0.15384615384615385 0.7692307692307693 0.07692307692307693 0.125 0.375 0.5 0.07692307692307693 0.6153846153846154 0.3076923076923077 0.1111111111111111 0.8888888888888888 0.0 0.16666666666666666 0.4166666666666667 0.4166666666666667 0.15789473684210525 0.6842105263157895 0.15789473684210525 0.0 0.9090909090909091 0.09090909090909091 0.0 0.6666666666666666 0.3333333333333333 0.21428571428571427 0.7142857142857143 0.07142857142857142 0.6 0.4 0.0 0.46153846153846156 0.23076923076923078 0.3076923076923077 0.2222222222222222 0.4444444444444444 0.3333333333333333 0.5 0.25 0.25 0.2777777777777778 0.3333333333333333 0.3888888888888889 0.5384615384615384 0.0 0.46153846153846156 0.5 0.25 0.25 0.25 0.4166666666666667 0.3333333333333333 0.3333333333333333 0.1111111111111111 0.5555555555555556 0.1 0.7 0.2 0.2727272727272727 0.5454545454545454 0.18181818181818182 0.14285714285714285 0.5 0.35714285714285715 0.07142857142857142 0.5 0.42857142857142855 0.1 0.7 0.2 0.0625 0.5 0.4375 0.0 0.5 0.5 0.16666666666666666 0.4166666666666667 0.4166666666666667 0.0 0.625 0.375 0.06666666666666667 0.4 0.5333333333333333 0.3333333333333333 0.4444444444444444 0.2222222222222222 0.15 0.65 0.2 0.045454545454545456 0.4090909090909091 0.5454545454545454 0.1111111111111111 0.7777777777777778 0.1111111111111111 0.15384615384615385 0.38461538461538464 0.46153846153846156 0.18181818181818182 0.5 0.3181818181818182 0.2222222222222222 0.7777777777777778 0.0 0.125 0.5 0.375 0.7 0.2 0.1 0.35294117647058826 0.17647058823529413 0.47058823529411764 0.3333333333333333 0.4444444444444444 0.2222222222222222 0.5454545454545454 0.18181818181818182 0.2727272727272727 0.36 0.2 0.44 0.631578947368421 0.21052631578947367 0.15789473684210525 0.5 0.08333333333333333 0.4166666666666667 0.6111111111111112 0.2222222222222222 0.16666666666666666 0.47368421052631576 0.21052631578947367 0.3157894736842105 0.3333333333333333 0.3333333333333333 0.3333333333333333 0.23529411764705882 0.29411764705882354 0.47058823529411764 0.375 0.125 0.5 0.16666666666666666 0.3333333333333333 0.5 0.391304347826087 0.21739130434782608 0.391304347826087 0.35714285714285715 0.35714285714285715 0.2857142857142857 0.36363636363636365 0.13636363636363635 0.5 0.5294117647058824 0.058823529411764705 0.4117647058823529 0.14705882352941177 0.3235294117647059 0.5294117647058824 </TABLE>
    </DEFINITION>
    <DEFINITION>
      <FOR>EURRUB Curncy - Last Price</FOR>
      <GIVEN>CO1 Comdty - Last Price</GIVEN>
      <GIVEN>EURGBP Curncy - Last Price</GIVEN>
      <GIVEN>EURUSD Curncy - Last Price</GIVEN>
      <GIVEN>MXEU0EN Index - Last Price</GIVEN>
      <GIVEN>VIX Index - Last Price</GIVEN>
      <TABLE>0.4166666666666667 0.3333333333333333 0.25 0.3617021276595745 0.2765957446808511 0.3617021276595745 0.047619047619047616 0.5238095238095238 0.42857142857142855 0.5263157894736842 0.15789473684210525 0.3157894736842105 0.6 0.0 0.4 0.6153846153846154 0.3076923076923077 0.07692307692307693 0.5 0.13636363636363635 0.36363636363636365 0.4666666666666667 0.2 0.3333333333333333 0.3125 0.25 0.4375 0.4444444444444444 0.2222222222222222 0.3333333333333333 0.0 0.8571428571428571 0.14285714285714285 0.0 0.8333333333333334 0.16666666666666666 0.3333333333333333 0.16666666666666666 0.5 0.0 0.6666666666666666 0.3333333333333333 0.3333333333333333 0.6666666666666666 0.0 0.0 0.5 0.5 0.0 0.4 0.6 0.16666666666666666 0.6666666666666666 0.16666666666666666 0.4166666666666667 0.3333333333333333 0.25 0.17647058823529413 0.5882352941176471 0.23529411764705882 0.2608695652173913 0.43478260869565216 0.30434782608695654 0.6666666666666666 0.3333333333333333 0.0 0.0 0.5 0.5 0.25 0.25 0.5 0.3333333333333333 0.4444444444444444 0.2222222222222222 0.2222222222222222 0.4444444444444444 0.3333333333333333 0.38461538461538464 0.3076923076923077 0.3076923076923077 0.0 0.42857142857142855 0.5714285714285714 0.18518518518518517 0.5555555555555556 0.25925925925925924 0.1875 0.4375 0.375 0.6 0.2 0.2 1.0 0.0 0.0 0.3333333333333333 0.0 0.6666666666666666 0.6 0.0 0.4 0.3333333333333333 0.2 0.4666666666666667 0.5714285714285714 0.14285714285714285 0.2857142857142857 0.10344827586206896 0.5862068965517241 0.3103448275862069 0.025 0.725 0.25 0.0625 0.71875 0.21875 0.3076923076923077 0.38461538461538464 0.3076923076923077 0.3333333333333333 0.3333333333333333 0.3333333333333333 0.36363636363636365 0.45454545454545453 0.18181818181818182 0.3 0.2 0.5 0.06666666666666667 0.8 0.13333333333333333 0.0 0.6 0.4 0.16666666666666666 0.4166666666666667 0.4166666666666667 0.05128205128205128 0.6923076923076923 0.2564102564102564 0.19047619047619047 0.5238095238095238 0.2857142857142857 0.5 0.0 0.5 0.0 0.0 1.0 0.4 0.2 0.4 0.25 0.25 0.5 0.3 0.4 0.3 0.3333333333333333 0.4666666666666667 0.2 0.5 0.2777777777777778 0.2222222222222222 0.2222222222222222 0.3888888888888889 0.3888888888888889 0.3333333333333333 0.5 0.16666666666666666 1.0 0.0 0.0 0.7142857142857143 0.0 0.2857142857142857 0.3333333333333333 0.1111111111111111 0.5555555555555556 0.3333333333333333 0.3333333333333333 0.3333333333333333 0.2631578947368421 0.3684210526315789 0.3684210526315789 0.2857142857142857 0.21428571428571427 0.5 0.125 0.625 0.25 0.03225806451612903 0.8064516129032258 0.16129032258064516 0.29411764705882354 0.47058823529411764 0.23529411764705882 0.4 0.4 0.2 0.3333333333333333 0.6666666666666666 0.0 0.0 1.0 0.0 0.0 0.5714285714285714 0.42857142857142855 0.1111111111111111 0.5555555555555556 0.3333333333333333 0.1 0.6 0.3 0.0 0.8571428571428571 0.14285714285714285 0.13953488372093023 0.627906976744186 0.23255813953488372 0.13043478260869565 0.6086956521739131 0.2608695652173913 0.0 0.3333333333333333 0.6666666666666666 0.0 0.6 0.4 0.0 0.0 1.0 0.2857142857142857 0.7142857142857143 0.0 0.23076923076923078 0.3076923076923077 0.46153846153846156 0.21428571428571427 0.21428571428571427 0.5714285714285714 0.6 0.2 0.2 0.375 0.0 0.625 0.6 0.2 0.2 0.8095238095238095 0.015873015873015872 0.1746031746031746 0.5714285714285714 0.2857142857142857 0.14285714285714285 0.7407407407407407 0.07407407407407407 0.18518518518518517 0.75 0.125 0.125 0.46153846153846156 0.15384615384615385 0.38461538461538464 0.46153846153846156 0.15384615384615385 0.38461538461538464 0.0 0.3333333333333333 0.6666666666666666 0.25 0.5 0.25 0.0 0.5 0.5 0.5 0.23333333333333334 0.26666666666666666 0.3333333333333333 0.3333333333333333 0.3333333333333333 0.2631578947368421 0.3684210526315789 0.3684210526315789 0.36363636363636365 0.2727272727272727 0.36363636363636365 0.2 0.4 0.4 0.1111111111111111 0.3333333333333333 0.5555555555555556 0.6 0.2 0.2 0.4 0.2 0.4 1.0 0.0 0.0 0.717948717948718 0.1282051282051282 0.15384615384615385 0.35714285714285715 0.14285714285714285 0.5 0.5 0.20833333333333334 0.2916666666666667 0.5384615384615384 0.15384615384615385 0.3076923076923077 0.16666666666666666 0.3333333333333333 0.5 0.3333333333333333 0.0 0.6666666666666666 0.3333333333333333 0.3333333333333333 0.3333333333333333 0.42857142857142855 0.14285714285714285 0.42857142857142855 0.6666666666666666 0.3333333333333333 0.0 0.6666666666666666 0.0 0.3333333333333333 0.5833333333333334 0.16666666666666666 0.25 0.8 0.1 0.1 0.5555555555555556 0.2222222222222222 0.2222222222222222 0.4 0.2 0.4 1.0 0.0 0.0 0.1 0.6 0.3 0.05263157894736842 0.5263157894736842 0.42105263157894735 0.25 0.4166666666666667 0.3333333333333333 0.29545454545454547 0.2727272727272727 0.4318181818181818 0.08333333333333333 0.5 0.4166666666666667 0.18181818181818182 0.5454545454545454 0.2727272727272727 0.28 0.4 0.32 0.14285714285714285 0.35714285714285715 0.5 0.1111111111111111 0.5 0.3888888888888889 0.3333333333333333 0.3333333333333333 0.3333333333333333 0.25 0.25 0.5 0.25 0.25 0.5 0.6666666666666666 0.1111111111111111 0.2222222222222222 0.25 0.375 0.375 0.45454545454545453 0.0 0.5454545454545454 0.4 0.2 0.4 0.2222222222222222 0.3333333333333333 0.4444444444444444 0.6666666666666666 0.1111111111111111 0.2222222222222222 0.75 0.0 0.25 0.5 0.0 0.5 0.16666666666666666 0.16666666666666666 0.6666666666666666 0.88 0.04 0.08 0.35714285714285715 0.42857142857142855 0.21428571428571427 0.5 0.16666666666666666 0.3333333333333333 0.42857142857142855 0.14285714285714285 0.42857142857142855 0.16666666666666666 0.08333333333333333 0.75 0.29411764705882354 0.23529411764705882 0.47058823529411764 0.5 0.25 0.25 0.2 0.4 0.4 0.6666666666666666 0.3333333333333333 0.0 0.5 0.17647058823529413 0.3235294117647059 0.2857142857142857 0.2857142857142857 0.42857142857142855 0.3 0.4 0.3 0.5 0.1 0.4 0.16666666666666666 0.25 0.5833333333333334 0.47058823529411764 0.11764705882352941 0.4117647058823529 0.8333333333333334 0.0 0.16666666666666666 0.4444444444444444 0.5555555555555556 0.0 0.4444444444444444 0.0 0.5555555555555556 0.5588235294117647 0.11764705882352941 0.3235294117647059 0.2727272727272727 0.2727272727272727 0.45454545454545453 0.3076923076923077 0.15384615384615385 0.5384615384615384 0.4166666666666667 0.16666666666666666 0.4166666666666667 0.35294117647058826 0.35294117647058826 0.29411764705882354 0.5384615384615384 0.15384615384615385 0.3076923076923077 0.6666666666666666 0.3333333333333333 0.0 0.5333333333333333 0.26666666666666666 0.2 0.3333333333333333 0.16666666666666666 0.5 0.6842105263157895 0.10526315789473684 0.21052631578947367 0.6 0.1 0.3 0.5 0.2727272727272727 0.22727272727272727 0.7333333333333333 0.0 0.26666666666666666 0.5263157894736842 0.21052631578947367 0.2631578947368421 0.5 0.23076923076923078 0.2692307692307692 0.2 0.4 0.4 0.0 0.8571428571428571 0.14285714285714285 0.0 0.5 0.5 0.4 0.2 0.4 0.2857142857142857 0.42857142857142855 0.2857142857142857 0.18181818181818182 0.45454545454545453 0.36363636363636365 0.0 0.5714285714285714 0.42857142857142855 0.16666666666666666 0.4166666666666667 0.4166666666666667 0.3333333333333333 0.3333333333333333 0.3333333333333333 0.5 0.16666666666666666 0.3333333333333333 0.23076923076923078 0.38461538461538464 0.38461538461538464 0.5 0.25 0.25 0.38461538461538464 0.19230769230769232 0.4230769230769231 0.14285714285714285 0.14285714285714285 0.7142857142857143 0.36363636363636365 0.0 0.6363636363636364 0.375 0.3125 0.3125 0.08333333333333333 0.5 0.4166666666666667 0.34615384615384615 0.2692307692307692 0.38461538461538464 0.0 0.0 1.0 0.0 0.75 0.25 0.2857142857142857 0.07142857142857142 0.6428571428571429 1.0 0.0 0.0 0.3333333333333333 0.16666666666666666 0.5 0.125 0.375 0.5 0.5555555555555556 0.2222222222222222 0.2222222222222222 0.375 0.5 0.125 0.2 0.3 0.5 0.3076923076923077 0.38461538461538464 0.3076923076923077 0.125 0.65625 0.21875 0.15789473684210525 0.5789473684210527 0.2631578947368421 0.2222222222222222 0.2777777777777778 0.5 0.36363636363636365 0.2727272727272727 0.36363636363636365 0.07692307692307693 0.38461538461538464 0.5384615384615384 0.12 0.44 0.44 0.0625 0.6875 0.25 0.17647058823529413 0.5294117647058824 0.29411764705882354 0.3333333333333333 0.5 0.16666666666666666 0.07142857142857142 0.21428571428571427 0.7142857142857143 0.38461538461538464 0.3076923076923077 0.3076923076923077 0.2222222222222222 0.16666666666666666 0.6111111111111112 0.2 0.4 0.4 0.14285714285714285 0.14285714285714285 0.7142857142857143 0.36363636363636365 0.09090909090909091 0.5454545454545454 0.21428571428571427 0.42857142857142855 0.35714285714285715 0.26666666666666666 0.4 0.3333333333333333 0.4 0.0 0.6 0.2 0.4 0.4 0.5 0.1 0.4 0.3333333333333333 0.2222222222222222 0.4444444444444444 0.6153846153846154 0.07692307692307693 0.3076923076923077 0.4166666666666667 0.16666666666666666 0.4166666666666667 0.4 0.0 0.6 0.3333333333333333 0.16666666666666666 0.5 0.4 0.2 0.4 0.0 0.4 0.6 0.06666666666666667 0.7333333333333333 0.2 0.3333333333333333 0.3333333333333333 0.3333333333333333 0.4 0.26666666666666666 0.3333333333333333 0.0 0.5555555555555556 0.4444444444444444 0.5 0.375 0.125 0.35294117647058826 0.29411764705882354 0.35294117647058826 0.26666666666666666 0.5333333333333333 0.2 0.29411764705882354 0.35294117647058826 0.35294117647058826 0.16666666666666666 0.3333333333333333 0.5 0.07142857142857142 0.7142857142857143 0.21428571428571427 0.10526315789473684 0.631578947368421 0.2631578947368421 0.5384615384615384 0.23076923076923078 0.23076923076923078 0.4 0.2 0.4 0.46153846153846156 0.23076923076923078 0.3076923076923077 0.29411764705882354 0.23529411764705882 0.47058823529411764 0.14285714285714285 0.6428571428571429 0.21428571428571427 0.34285714285714286 0.17142857142857143 0.4857142857142857 </TABLE>
    </DEFINITION>
    <DEFINITION>
      <FOR>EURUSD Curncy - Last Price</FOR>
      <GIVEN>EURCNY Curncy - Last Price</GIVEN>
      <TABLE>0.5953757225433526 0.1252408477842004 0.279383429672447 0.12729026036644167 0.5959498553519769 0.2767598842815815 0.2777242044358727 0.2786885245901639 0.44358727097396333 </TABLE>
    </DEFINITION>
    <DEFINITION>
      <FOR>LBEATREU Index - Last Price</FOR>
      <GIVEN>CAC Index - Last Price</GIVEN>
      <GIVEN>LP01TREU Index - Last Price</GIVEN>
      <GIVEN>MO1 Comdty - Last Price</GIVEN>
      <GIVEN>MXEU0EN Index - Last Price</GIVEN>
      <GIVEN>XA1 Comdty - Last Price</GIVEN>
      <TABLE>0.22058823529411764 0.36764705882352944 0.4117647058823529 0.36363636363636365 0.30303030303030304 0.3333333333333333 0.30434782608695654 0.391304347826087 0.30434782608695654 0.2 0.0 0.8 0.0 0.25 0.75 0.8 0.2 0.0 0.3076923076923077 0.23076923076923078 0.46153846153846156 0.5 0.3 0.2 0.38461538461538464 0.3076923076923077 0.3076923076923077 0.3235294117647059 0.3235294117647059 0.35294117647058826 0.5172413793103449 0.20689655172413793 0.27586206896551724 0.4827586206896552 0.06896551724137931 0.4482758620689655 0.0 0.3333333333333333 0.6666666666666666 0.6 0.0 0.4 0.25 0.25 0.5 0.5 0.375 0.125 0.7727272727272727 0.045454545454545456 0.18181818181818182 0.5625 0.1875 0.25 0.3488372093023256 0.4186046511627907 0.23255813953488372 0.2894736842105263 0.3684210526315789 0.34210526315789475 0.4146341463414634 0.3902439024390244 0.1951219512195122 0.5555555555555556 0.1111111111111111 0.3333333333333333 0.375 0.25 0.375 0.3333333333333333 0.4444444444444444 0.2222222222222222 0.6470588235294118 0.11764705882352941 0.23529411764705882 0.38095238095238093 0.2857142857142857 0.3333333333333333 0.4375 0.25 0.3125 0.0 0.6428571428571429 0.35714285714285715 0.2 0.6 0.2 0.2857142857142857 0.21428571428571427 0.5 0.0 0.3333333333333333 0.6666666666666666 0.3333333333333333 0.3333333333333333 0.3333333333333333 0.0 0.5 0.5 0.0 0.5 0.5 0.25 0.5 0.25 0.6 0.4 0.0 0.2 0.4 0.4 0.25 0.25 0.5 0.3333333333333333 0.3333333333333333 0.3333333333333333 0.0 0.5 0.5 0.25 0.5 0.25 0.3333333333333333 0.3333333333333333 0.3333333333333333 0.0 0.6666666666666666 0.3333333333333333 0.3333333333333333 0.6666666666666666 0.0 0.3333333333333333 0.16666666666666666 0.5 0.2 0.4666666666666667 0.3333333333333333 0.2857142857142857 0.42857142857142855 0.2857142857142857 0.0 0.375 0.625 0.3333333333333333 0.3333333333333333 0.3333333333333333 0.0 0.6666666666666666 0.3333333333333333 0.25 0.5 0.25 0.0 0.0 1.0 0.0 0.42857142857142855 0.5714285714285714 0.5 0.16666666666666666 0.3333333333333333 0.21212121212121213 0.36363636363636365 0.42424242424242425 0.375 0.3125 0.3125 0.3793103448275862 0.3448275862068966 0.27586206896551724 1.0 0.0 0.0 0.0 1.0 0.0 0.6 0.0 0.4 0.25 0.3125 0.4375 0.09090909090909091 0.6363636363636364 0.2727272727272727 0.3333333333333333 0.3333333333333333 0.3333333333333333 0.19047619047619047 0.5714285714285714 0.23809523809523808 0.2857142857142857 0.42857142857142855 0.2857142857142857 0.45454545454545453 0.2727272727272727 0.2727272727272727 0.0 1.0 0.0 0.25 0.5 0.25 0.0 0.5 0.5 0.25 0.25 0.5 0.35294117647058826 0.11764705882352941 0.5294117647058824 0.36363636363636365 0.2727272727272727 0.36363636363636365 0.07692307692307693 0.46153846153846156 0.46153846153846156 0.4666666666666667 0.26666666666666666 0.26666666666666666 0.21428571428571427 0.6428571428571429 0.14285714285714285 0.3333333333333333 0.16666666666666666 0.5 0.2 0.2 0.6 0.5 0.5 0.0 0.2857142857142857 0.2857142857142857 0.42857142857142855 0.18181818181818182 0.5454545454545454 0.2727272727272727 0.2727272727272727 0.18181818181818182 0.5454545454545454 0.75 0.0 0.25 0.3333333333333333 0.3333333333333333 0.3333333333333333 0.5 0.5 0.0 0.8 0.1 0.1 0.4 0.2 0.4 0.2727272727272727 0.2727272727272727 0.45454545454545453 0.42857142857142855 0.42857142857142855 0.14285714285714285 0.6666666666666666 0.3333333333333333 0.0 0.36363636363636365 0.2727272727272727 0.36363636363636365 0.3333333333333333 0.3333333333333333 0.3333333333333333 0.3333333333333333 0.6666666666666666 0.0 0.3333333333333333 0.3333333333333333 0.3333333333333333 0.75 0.0 0.25 0.75 0.1 0.15 0.5714285714285714 0.2857142857142857 0.14285714285714285 0.4 0.6 0.0 0.375 0.375 0.25 0.16666666666666666 0.3333333333333333 0.5 0.6666666666666666 0.0 0.3333333333333333 0.3333333333333333 0.3333333333333333 0.3333333333333333 0.0 1.0 0.0 0.5 0.125 0.375 0.5 0.0 0.5 0.5714285714285714 0.2857142857142857 0.14285714285714285 0.25 0.25 0.5 0.6666666666666666 0.3333333333333333 0.0 0.625 0.25 0.125 0.0 0.8888888888888888 0.1111111111111111 0.25 0.5 0.25 0.4 0.2 0.4 0.38461538461538464 0.3076923076923077 0.3076923076923077 0.16129032258064516 0.6129032258064516 0.22580645161290322 0.3076923076923077 0.3076923076923077 0.38461538461538464 0.25 0.5 0.25 0.125 0.75 0.125 0.25 0.625 0.125 0.0 0.8333333333333334 0.16666666666666666 0.25 0.5 0.25 0.14285714285714285 0.5714285714285714 0.2857142857142857 0.5227272727272727 0.25 0.22727272727272727 0.5217391304347826 0.30434782608695654 0.17391304347826086 0.22 0.32 0.46 0.18181818181818182 0.5454545454545454 0.2727272727272727 0.30303030303030304 0.30303030303030304 0.3939393939393939 0.16666666666666666 0.5833333333333334 0.25 0.0 0.3 0.7 0.0 1.0 0.0 0.4 0.6 0.0 0.375 0.2916666666666667 0.3333333333333333 0.38636363636363635 0.3409090909090909 0.2727272727272727 0.3611111111111111 0.3888888888888889 0.25 0.1111111111111111 0.8888888888888888 0.0 0.06666666666666667 0.7333333333333333 0.2 0.22580645161290322 0.5161290322580645 0.25806451612903225 0.2222222222222222 0.4444444444444444 0.3333333333333333 0.25 0.75 0.0 0.2 0.8 0.0 0.38461538461538464 0.23076923076923078 0.38461538461538464 0.29411764705882354 0.47058823529411764 0.23529411764705882 0.2222222222222222 0.1111111111111111 0.6666666666666666 0.5714285714285714 0.2857142857142857 0.14285714285714285 0.5 0.0 0.5 0.3 0.2 0.5 0.3333333333333333 0.6666666666666666 0.0 0.2857142857142857 0.7142857142857143 0.0 0.6 0.2 0.2 0.5833333333333334 0.25 0.16666666666666666 0.45161290322580644 0.2903225806451613 0.25806451612903225 0.391304347826087 0.30434782608695654 0.30434782608695654 0.42857142857142855 0.14285714285714285 0.42857142857142855 0.18181818181818182 0.36363636363636365 0.45454545454545453 0.8571428571428571 0.14285714285714285 0.0 0.25 0.75 0.0 0.5 0.5 0.0 0.5 0.5 0.0 0.5833333333333334 0.20833333333333334 0.20833333333333334 0.45454545454545453 0.18181818181818182 0.36363636363636365 0.5789473684210527 0.2631578947368421 0.15789473684210525 0.13333333333333333 0.6666666666666666 0.2 0.2857142857142857 0.14285714285714285 0.5714285714285714 0.18181818181818182 0.5454545454545454 0.2727272727272727 0.3 0.25 0.45 0.25 0.5 0.25 0.375 0.3125 0.3125 0.25 0.25 0.5 0.6 0.0 0.4 0.3333333333333333 0.16666666666666666 0.5 0.48148148148148145 0.2222222222222222 0.2962962962962963 0.08333333333333333 0.3333333333333333 0.5833333333333334 0.5555555555555556 0.2222222222222222 0.2222222222222222 0.16666666666666666 0.3333333333333333 0.5 0.5333333333333333 0.2 0.26666666666666666 0.75 0.25 0.0 0.8 0.2 0.0 0.5714285714285714 0.07142857142857142 0.35714285714285715 0.47058823529411764 0.17647058823529413 0.35294117647058826 0.2 0.2 0.6 0.17647058823529413 0.6470588235294118 0.17647058823529413 0.38461538461538464 0.15384615384615385 0.46153846153846156 0.4 0.26666666666666666 0.3333333333333333 0.45454545454545453 0.18181818181818182 0.36363636363636365 0.5 0.25 0.25 0.5833333333333334 0.16666666666666666 0.25 0.75 0.125 0.125 0.25 0.5 0.25 0.42857142857142855 0.14285714285714285 0.42857142857142855 0.2631578947368421 0.42105263157894735 0.3157894736842105 0.4375 0.1875 0.375 0.16666666666666666 0.4166666666666667 0.4166666666666667 0.0 0.75 0.25 0.0 0.5 0.5 0.2222222222222222 0.3333333333333333 0.4444444444444444 0.16666666666666666 0.16666666666666666 0.6666666666666666 0.2222222222222222 0.5555555555555556 0.2222222222222222 0.1 0.6 0.3 0.25 0.6666666666666666 0.08333333333333333 0.13333333333333333 0.4666666666666667 0.4 0.25 0.25 0.5 0.4166666666666667 0.25 0.3333333333333333 0.2857142857142857 0.2857142857142857 0.42857142857142855 0.2727272727272727 0.45454545454545453 0.2727272727272727 0.25 0.3125 0.4375 0.23529411764705882 0.23529411764705882 0.5294117647058824 0.5 0.0 0.5 0.08333333333333333 0.5416666666666666 0.375 0.0 0.46153846153846156 0.5384615384615384 0.09090909090909091 0.45454545454545453 0.45454545454545453 0.0 1.0 0.0 0.0 0.6666666666666666 0.3333333333333333 0.26666666666666666 0.3333333333333333 0.4 0.18181818181818182 0.5454545454545454 0.2727272727272727 0.35714285714285715 0.35714285714285715 0.2857142857142857 0.42857142857142855 0.2857142857142857 0.2857142857142857 0.2857142857142857 0.35714285714285715 0.35714285714285715 0.20833333333333334 0.16666666666666666 0.625 0.18181818181818182 0.4090909090909091 0.4090909090909091 0.23076923076923078 0.46153846153846156 0.3076923076923077 0.3888888888888889 0.2222222222222222 0.3888888888888889 0.23076923076923078 0.3076923076923077 0.46153846153846156 0.5 0.3333333333333333 0.16666666666666666 0.6666666666666666 0.0 0.3333333333333333 0.20689655172413793 0.1724137931034483 0.6206896551724138 0.2857142857142857 0.14285714285714285 0.5714285714285714 0.15384615384615385 0.15384615384615385 0.6923076923076923 0.14285714285714285 0.42857142857142855 0.42857142857142855 0.0 0.4 0.6 0.3076923076923077 0.3076923076923077 0.38461538461538464 0.2 0.2 0.6 0.631578947368421 0.15789473684210525 0.21052631578947367 0.42857142857142855 0.14285714285714285 0.42857142857142855 0.23076923076923078 0.5384615384615384 0.23076923076923078 0.45 0.3 0.25 0.4117647058823529 0.23529411764705882 0.35294117647058826 0.1111111111111111 0.6666666666666666 0.2222222222222222 0.36363636363636365 0.09090909090909091 0.5454545454545454 0.4 0.2 0.4 0.3076923076923077 0.23076923076923078 0.46153846153846156 0.2222222222222222 0.5555555555555556 0.2222222222222222 0.4166666666666667 0.3333333333333333 0.25 0.35714285714285715 0.35714285714285715 0.2857142857142857 0.17857142857142858 0.35714285714285715 0.4642857142857143 0.20689655172413793 0.13793103448275862 0.6551724137931034 </TABLE>
    </DEFINITION>
    <DEFINITION>
      <FOR>LP01TREU Index - Last Price</FOR>
      <GIVEN>EURUSD Curncy - Last Price</GIVEN>
      <GIVEN>MXEU0EN Index - Last Price</GIVEN>
      <GIVEN>SPX Index - Last Price</GIVEN>
      <GIVEN>SXXP Index - Last Price</GIVEN>
      <TABLE>0.5845070422535211 0.11267605633802817 0.3028169014084507 0.0 0.375 0.625 0.2972972972972973 0.2702702702702703 0.43243243243243246 0.4666666666666667 0.2 0.3333333333333333 0.07692307692307693 0.46153846153846156 0.46153846153846156 0.35 0.2 0.45 0.5116279069767442 0.18604651162790697 0.3023255813953488 0.3333333333333333 0.3333333333333333 0.3333333333333333 0.2727272727272727 0.3333333333333333 0.3939393939393939 0.7407407407407407 0.07407407407407407 0.18518518518518517 0.15625 0.4375 0.40625 0.2903225806451613 0.3870967741935484 0.3225806451612903 0.6 0.2 0.2 0.06832298136645963 0.7639751552795031 0.16770186335403728 0.1111111111111111 0.3333333333333333 0.5555555555555556 0.625 0.25 0.125 0.17543859649122806 0.543859649122807 0.2807017543859649 0.36585365853658536 0.2926829268292683 0.34146341463414637 0.4107142857142857 0.14285714285714285 0.44642857142857145 0.14285714285714285 0.6428571428571429 0.21428571428571427 0.21818181818181817 0.38181818181818183 0.4 0.5555555555555556 0.3333333333333333 0.1111111111111111 0.18181818181818182 0.6590909090909091 0.1590909090909091 0.3076923076923077 0.15384615384615385 0.5384615384615384 0.6206896551724138 0.06896551724137931 0.3103448275862069 0.0967741935483871 0.5806451612903226 0.3225806451612903 0.2676056338028169 0.36619718309859156 0.36619718309859156 0.6544117647058824 0.10294117647058823 0.2426470588235294 0.0 0.5 0.5 0.45454545454545453 0.24242424242424243 0.30303030303030304 0.5151515151515151 0.15151515151515152 0.3333333333333333 0.041666666666666664 0.5416666666666666 0.4166666666666667 0.2857142857142857 0.2857142857142857 0.42857142857142855 0.6666666666666666 0.09090909090909091 0.24242424242424243 0.0 0.625 0.375 0.39285714285714285 0.25 0.35714285714285715 0.75 0.0 0.25 0.19047619047619047 0.5238095238095238 0.2857142857142857 0.23529411764705882 0.17647058823529413 0.5882352941176471 0.7857142857142857 0.21428571428571427 0.0 0.18439716312056736 0.5035460992907801 0.3120567375886525 0.25 0.375 0.375 0.5714285714285714 0.35714285714285715 0.07142857142857142 0.09615384615384616 0.5769230769230769 0.3269230769230769 0.275 0.325 0.4 0.5319148936170213 0.1276595744680851 0.3404255319148936 0.16666666666666666 0.16666666666666666 0.6666666666666666 0.23684210526315788 0.2631578947368421 0.5 0.52 0.12 0.36 0.18181818181818182 0.6 0.21818181818181817 0.2978723404255319 0.23404255319148937 0.46808510638297873 0.43333333333333335 0.2 0.36666666666666664 0.16666666666666666 0.5666666666666667 0.26666666666666666 0.21568627450980393 0.3137254901960784 0.47058823529411764 0.6239316239316239 0.08547008547008547 0.2905982905982906 0.0 0.7142857142857143 0.2857142857142857 0.22857142857142856 0.17142857142857143 0.6 0.7142857142857143 0.0 0.2857142857142857 0.05555555555555555 0.7777777777777778 0.16666666666666666 0.34615384615384615 0.34615384615384615 0.3076923076923077 0.43859649122807015 0.10526315789473684 0.45614035087719296 0.13333333333333333 0.6 0.26666666666666666 0.3888888888888889 0.24074074074074073 0.37037037037037035 0.5294117647058824 0.058823529411764705 0.4117647058823529 0.05555555555555555 0.5 0.4444444444444444 0.48 0.4 0.12 0.1111111111111111 0.1111111111111111 0.7777777777777778 0.10084033613445378 0.6050420168067226 0.29411764705882354 0.37037037037037035 0.2962962962962963 0.3333333333333333 0.3333333333333333 0.0 0.6666666666666666 0.12 0.66 0.22 0.3023255813953488 0.27906976744186046 0.4186046511627907 0.5957446808510638 0.1276595744680851 0.2765957446808511 0.0 0.6666666666666666 0.3333333333333333 0.2391304347826087 0.2608695652173913 0.5 0.5 0.2 0.3 0.06818181818181818 0.5681818181818182 0.36363636363636365 0.32608695652173914 0.2608695652173913 0.41304347826086957 0.4883720930232558 0.16279069767441862 0.3488372093023256 0.20930232558139536 0.5116279069767442 0.27906976744186046 0.36585365853658536 0.21951219512195122 0.4146341463414634 </TABLE>
    </DEFINITION>
    <DEFINITION>
      <FOR>MO1 Comdty - Last Price</FOR>
      <GIVEN>CAC Index - Last Price</GIVEN>
      <GIVEN>EURRUB Curncy - Last Price</GIVEN>
      <GIVEN>EURUSD Curncy - Last Price</GIVEN>
      <GIVEN>MXEU0EN Index - Last Price</GIVEN>
      <GIVEN>XA1 Comdty - Last Price</GIVEN>
      <TABLE>0.6 0.16 0.24 0.22727272727272727 0.4090909090909091 0.36363636363636365 0.5333333333333333 0.26666666666666666 0.2 0.5 0.1 0.4 0.16666666666666666 0.5 0.3333333333333333 0.5 0.25 0.25 0.5 0.25 0.25 0.25 0.5 0.25 0.2777777777777778 0.2777777777777778 0.4444444444444444 0.45454545454545453 0.2727272727272727 0.2727272727272727 0.6666666666666666 0.0 0.3333333333333333 0.5555555555555556 0.3333333333333333 0.1111111111111111 1.0 0.0 0.0 0.0 0.6666666666666666 0.3333333333333333 1.0 0.0 0.0 0.3333333333333333 0.3333333333333333 0.3333333333333333 0.625 0.25 0.125 0.2 0.2 0.6 0.3333333333333333 0.3333333333333333 0.3333333333333333 0.125 0.375 0.5 0.4666666666666667 0.4 0.13333333333333333 0.25 0.25 0.5 0.25 0.0 0.75 0.0 1.0 0.0 0.625 0.375 0.0 0.1 0.4 0.5 0.0 0.2857142857142857 0.7142857142857143 0.44 0.32 0.24 0.45 0.3 0.25 0.6 0.15 0.25 0.25 0.0 0.75 0.16666666666666666 0.3333333333333333 0.5 0.0 0.0 1.0 0.2 0.6 0.2 0.0 0.16666666666666666 0.8333333333333334 0.36363636363636365 0.18181818181818182 0.45454545454545453 0.4 0.3 0.3 0.3902439024390244 0.24390243902439024 0.36585365853658536 0.3958333333333333 0.20833333333333334 0.3958333333333333 0.5 0.0 0.5 0.3333333333333333 0.6666666666666666 0.0 0.2 0.0 0.8 0.3157894736842105 0.15789473684210525 0.5263157894736842 0.20833333333333334 0.5416666666666666 0.25 0.0 0.5714285714285714 0.42857142857142855 0.425 0.175 0.4 0.3 0.4666666666666667 0.23333333333333334 0.4375 0.21875 0.34375 0.25 0.5 0.25 0.3333333333333333 0.3333333333333333 0.3333333333333333 0.42857142857142855 0.2857142857142857 0.2857142857142857 0.6363636363636364 0.09090909090909091 0.2727272727272727 0.07142857142857142 0.35714285714285715 0.5714285714285714 0.25 0.625 0.125 0.43333333333333335 0.16666666666666666 0.4 0.32 0.28 0.4 0.55 0.15 0.3 1.0 0.0 0.0 0.0 1.0 0.0 0.2 0.2 0.6 0.42105263157894735 0.10526315789473684 0.47368421052631576 0.36363636363636365 0.09090909090909091 0.5454545454545454 0.3 0.4 0.3 0.4782608695652174 0.17391304347826086 0.34782608695652173 0.18181818181818182 0.36363636363636365 0.45454545454545453 0.5 0.125 0.375 0.25 0.25 0.5 0.0 0.3333333333333333 0.6666666666666666 0.0 0.0 1.0 0.25 0.375 0.375 0.2222222222222222 0.4444444444444444 0.3333333333333333 0.35714285714285715 0.42857142857142855 0.21428571428571427 0.48148148148148145 0.18518518518518517 0.3333333333333333 0.16666666666666666 0.4166666666666667 0.4166666666666667 0.08333333333333333 0.3333333333333333 0.5833333333333334 0.14285714285714285 0.14285714285714285 0.7142857142857143 0.16666666666666666 0.5 0.3333333333333333 0.6666666666666666 0.3333333333333333 0.0 0.5714285714285714 0.14285714285714285 0.2857142857142857 0.26666666666666666 0.6 0.13333333333333333 0.25 0.25 0.5 0.3333333333333333 0.3333333333333333 0.3333333333333333 0.6666666666666666 0.3333333333333333 0.0 0.25 0.25 0.5 0.391304347826087 0.3695652173913043 0.2391304347826087 0.16393442622950818 0.5573770491803278 0.2786885245901639 0.32075471698113206 0.4339622641509434 0.24528301886792453 0.6428571428571429 0.14285714285714285 0.21428571428571427 0.16666666666666666 0.5 0.3333333333333333 0.3125 0.25 0.4375 1.0 0.0 0.0 0.0 0.5 0.5 0.0 0.5 0.5 0.15384615384615385 0.5769230769230769 0.2692307692307692 0.1 0.6 0.3 0.2631578947368421 0.3684210526315789 0.3684210526315789 0.375 0.375 0.25 0.125 0.625 0.25 0.625 0.125 0.25 0.6 0.0 0.4 1.0 0.0 0.0 0.5 0.5 0.0 0.4090909090909091 0.36363636363636365 0.22727272727272727 0.25 0.46875 0.28125 0.13793103448275862 0.41379310344827586 0.4482758620689655 0.1111111111111111 0.4444444444444444 0.4444444444444444 0.3076923076923077 0.46153846153846156 0.23076923076923078 0.26666666666666666 0.26666666666666666 0.4666666666666667 0.25 0.0 0.75 0.0 0.0 1.0 0.6666666666666666 0.3333333333333333 0.0 0.6666666666666666 0.3333333333333333 0.0 0.08333333333333333 0.5 0.4166666666666667 0.4 0.4 0.2 0.5 0.0 0.5 0.0 0.3333333333333333 0.6666666666666666 0.14285714285714285 0.2857142857142857 0.5714285714285714 0.36363636363636365 0.2727272727272727 0.36363636363636365 0.5 0.5 0.0 0.5 0.3333333333333333 0.16666666666666666 0.30434782608695654 0.34782608695652173 0.34782608695652173 0.18518518518518517 0.4074074074074074 0.4074074074074074 0.11764705882352941 0.47058823529411764 0.4117647058823529 0.4 0.2 0.4 0.13333333333333333 0.6 0.26666666666666666 0.42857142857142855 0.21428571428571427 0.35714285714285715 0.4 0.2 0.4 0.3333333333333333 0.6666666666666666 0.0 0.14285714285714285 0.42857142857142855 0.42857142857142855 0.0 0.375 0.625 0.3 0.5 0.2 0.2222222222222222 0.4444444444444444 0.3333333333333333 0.6666666666666666 0.16666666666666666 0.16666666666666666 0.14285714285714285 0.8571428571428571 0.0 0.45454545454545453 0.18181818181818182 0.36363636363636365 0.42857142857142855 0.14285714285714285 0.42857142857142855 0.16666666666666666 0.8333333333333334 0.0 0.0 1.0 0.0 0.5625 0.1875 0.25 0.21052631578947367 0.5263157894736842 0.2631578947368421 0.3333333333333333 0.2777777777777778 0.3888888888888889 0.3333333333333333 0.4444444444444444 0.2222222222222222 0.2222222222222222 0.5555555555555556 0.2222222222222222 0.25 0.25 0.5 0.5 0.3333333333333333 0.16666666666666666 0.3333333333333333 0.6666666666666666 0.0 1.0 0.0 0.0 0.42105263157894735 0.3157894736842105 0.2631578947368421 0.4 0.3 0.3 0.3 0.4666666666666667 0.23333333333333334 0.21428571428571427 0.2857142857142857 0.5 0.16666666666666666 0.5 0.3333333333333333 0.16666666666666666 0.3333333333333333 0.5 0.6666666666666666 0.3333333333333333 0.0 0.3333333333333333 0.3333333333333333 0.3333333333333333 0.5 0.0 0.5 0.2631578947368421 0.15789473684210525 0.5789473684210527 0.3181818181818182 0.5454545454545454 0.13636363636363635 0.3333333333333333 0.5 0.16666666666666666 0.5 0.25 0.25 0.07692307692307693 0.6153846153846154 0.3076923076923077 0.35294117647058826 0.11764705882352941 0.5294117647058824 0.6 0.0 0.4 0.26666666666666666 0.3333333333333333 0.4 0.4444444444444444 0.1111111111111111 0.4444444444444444 0.5 0.3125 0.1875 0.18181818181818182 0.45454545454545453 0.36363636363636365 0.2857142857142857 0.5 0.21428571428571427 0.5789473684210527 0.2631578947368421 0.15789473684210525 0.14814814814814814 0.4444444444444444 0.4074074074074074 0.3888888888888889 0.3333333333333333 0.2777777777777778 0.4 0.0 0.6 0.4 0.6 0.0 0.4 0.2 0.4 0.5714285714285714 0.2857142857142857 0.14285714285714285 0.16666666666666666 0.8333333333333334 0.0 0.2 0.4 0.4 0.6666666666666666 0.16666666666666666 0.16666666666666666 0.4666666666666667 0.4 0.13333333333333333 0.0 0.25 0.75 0.5 0.3333333333333333 0.16666666666666666 0.5714285714285714 0.0 0.42857142857142855 0.4 0.2 0.4 0.17647058823529413 0.29411764705882354 0.5294117647058824 0.2857142857142857 0.42857142857142855 0.2857142857142857 0.3 0.3 0.4 0.46153846153846156 0.23076923076923078 0.3076923076923077 0.21052631578947367 0.3684210526315789 0.42105263157894735 0.34615384615384615 0.3076923076923077 0.34615384615384615 0.5 0.08333333333333333 0.4166666666666667 0.25 0.75 0.0 0.6666666666666666 0.3333333333333333 0.0 0.4 0.4 0.2 0.14285714285714285 0.7142857142857143 0.14285714285714285 0.16666666666666666 0.3333333333333333 0.5 0.8 0.2 0.0 0.3 0.4 0.3 0.1111111111111111 0.2222222222222222 0.6666666666666666 0.6666666666666666 0.08333333333333333 0.25 0.35294117647058826 0.4117647058823529 0.23529411764705882 0.2857142857142857 0.38095238095238093 0.3333333333333333 0.2727272727272727 0.36363636363636365 0.36363636363636365 0.13333333333333333 0.6 0.26666666666666666 0.1875 0.5625 0.25 0.42105263157894735 0.3684210526315789 0.21052631578947367 0.4117647058823529 0.4117647058823529 0.17647058823529413 0.4117647058823529 0.23529411764705882 0.35294117647058826 0.4444444444444444 0.2222222222222222 0.3333333333333333 0.2 0.6 0.2 0.5 0.25 0.25 0.14285714285714285 0.42857142857142855 0.42857142857142855 0.3333333333333333 0.0 0.6666666666666666 0.3333333333333333 0.5 0.16666666666666666 0.6 0.0 0.4 0.10526315789473684 0.42105263157894735 0.47368421052631576 0.375 0.125 0.5 0.4166666666666667 0.25 0.3333333333333333 0.2 0.4 0.4 0.45454545454545453 0.2727272727272727 0.2727272727272727 0.3333333333333333 0.08333333333333333 0.5833333333333334 0.5 0.4 0.1 0.25 0.375 0.375 0.5882352941176471 0.11764705882352941 0.29411764705882354 0.21428571428571427 0.21428571428571427 0.5714285714285714 0.32 0.24 0.44 0.7272727272727273 0.09090909090909091 0.18181818181818182 0.2857142857142857 0.42857142857142855 0.2857142857142857 0.3 0.4 0.3 0.36363636363636365 0.18181818181818182 0.45454545454545453 0.1 0.6 0.3 0.0 0.8333333333333334 0.16666666666666666 0.36363636363636365 0.5454545454545454 0.09090909090909091 0.15789473684210525 0.5263157894736842 0.3157894736842105 0.2608695652173913 0.34782608695652173 0.391304347826087 0.35714285714285715 0.21428571428571427 0.42857142857142855 0.15384615384615385 0.38461538461538464 0.46153846153846156 0.3333333333333333 0.16666666666666666 0.5 0.35714285714285715 0.14285714285714285 0.5 0.2222222222222222 0.4444444444444444 0.3333333333333333 0.3684210526315789 0.2631578947368421 0.3684210526315789 0.52 0.24 0.24 0.25 0.2 0.55 0.1875 0.3125 0.5 </TABLE>
    </DEFINITION>
    <DEFINITION>
      <FOR>MXEU0EN Index - Last Price</FOR>
      <GIVEN>CAC Index - Last Price</GIVEN>
      <GIVEN>ECO Index - Last Price</GIVEN>
      <GIVEN>NG1 COMB Comdty - Last Price</GIVEN>
      <GIVEN>SXXP Index - Last Price</GIVEN>
      <TABLE>0.6875 0.06818181818181818 0.24431818181818182 0.3333333333333333 0.3333333333333333 0.3333333333333333 0.5625 0.1875 0.25 0.6423841059602649 0.07947019867549669 0.2781456953642384 0.3333333333333333 0.3333333333333333 0.3333333333333333 0.5625 0.125 0.3125 0.7580645161290323 0.07258064516129033 0.1693548387096774 0.3333333333333333 0.3333333333333333 0.3333333333333333 0.4583333333333333 0.25 0.2916666666666667 0.4634146341463415 0.12195121951219512 0.4146341463414634 0.3333333333333333 0.6666666666666666 0.0 0.25 0.25 0.5 0.45161290322580644 0.1774193548387097 0.3709677419354839 0.3333333333333333 0.3333333333333333 0.3333333333333333 0.35 0.3 0.35 0.6739130434782609 0.08695652173913043 0.2391304347826087 0.3333333333333333 0.3333333333333333 0.3333333333333333 0.23076923076923078 0.38461538461538464 0.38461538461538464 0.6736842105263158 0.06315789473684211 0.2631578947368421 0.3333333333333333 0.3333333333333333 0.3333333333333333 0.5625 0.0625 0.375 0.6103896103896104 0.11688311688311688 0.2727272727272727 0.3333333333333333 0.3333333333333333 0.3333333333333333 0.22727272727272727 0.2727272727272727 0.5 0.6019417475728155 0.05825242718446602 0.33980582524271846 0.3333333333333333 0.3333333333333333 0.3333333333333333 0.2857142857142857 0.2857142857142857 0.42857142857142855 0.3333333333333333 0.3333333333333333 0.3333333333333333 0.10204081632653061 0.4897959183673469 0.40816326530612246 0.47058823529411764 0.17647058823529413 0.35294117647058826 0.3333333333333333 0.3333333333333333 0.3333333333333333 0.18181818181818182 0.5454545454545454 0.2727272727272727 0.1875 0.4375 0.375 0.3333333333333333 0.3333333333333333 0.3333333333333333 0.1590909090909091 0.6818181818181818 0.1590909090909091 0.3684210526315789 0.2631578947368421 0.3684210526315789 0.3333333333333333 0.3333333333333333 0.3333333333333333 0.08227848101265822 0.6329113924050633 0.2848101265822785 0.23529411764705882 0.5882352941176471 0.17647058823529413 0.3333333333333333 0.3333333333333333 0.3333333333333333 0.05263157894736842 0.7631578947368421 0.18421052631578946 0.35294117647058826 0.29411764705882354 0.35294117647058826 0.0 0.0 1.0 0.09615384615384616 0.6538461538461539 0.25 0.07692307692307693 0.46153846153846156 0.46153846153846156 0.3333333333333333 0.3333333333333333 0.3333333333333333 0.10810810810810811 0.581081081081081 0.3108108108108108 0.0 0.3 0.7 0.3333333333333333 0.3333333333333333 0.3333333333333333 0.08536585365853659 0.6463414634146342 0.2682926829268293 0.3333333333333333 0.5 0.16666666666666666 0.5 0.0 0.5 0.0851063829787234 0.574468085106383 0.3404255319148936 0.045454545454545456 0.4090909090909091 0.5454545454545454 0.43478260869565216 0.08695652173913043 0.4782608695652174 0.1 0.6 0.3 0.35106382978723405 0.24468085106382978 0.40425531914893614 0.4444444444444444 0.2777777777777778 0.2777777777777778 0.125 0.75 0.125 0.32558139534883723 0.2558139534883721 0.4186046511627907 0.5294117647058824 0.11764705882352941 0.35294117647058826 0.08333333333333333 0.5 0.4166666666666667 0.2702702702702703 0.20270270270270271 0.527027027027027 0.22727272727272727 0.4090909090909091 0.36363636363636365 0.21428571428571427 0.21428571428571427 0.5714285714285714 0.21311475409836064 0.11475409836065574 0.6721311475409836 0.18181818181818182 0.5454545454545454 0.2727272727272727 0.24 0.72 0.04 0.29310344827586204 0.3103448275862069 0.39655172413793105 0.4 0.4 0.2 0.2222222222222222 0.5 0.2777777777777778 0.2702702702702703 0.35135135135135137 0.3783783783783784 0.42857142857142855 0.2857142857142857 0.2857142857142857 0.19047619047619047 0.5714285714285714 0.23809523809523808 0.35789473684210527 0.22105263157894736 0.42105263157894735 0.47368421052631576 0.15789473684210525 0.3684210526315789 0.05555555555555555 0.5 0.4444444444444444 0.18823529411764706 0.2823529411764706 0.5294117647058824 0.4838709677419355 0.16129032258064516 0.3548387096774194 0.23529411764705882 0.29411764705882354 0.47058823529411764 0.22429906542056074 0.24299065420560748 0.5327102803738317 </TABLE>
    </DEFINITION>
    <DEFINITION>
      <FOR>NG1 COMB Comdty - Last Price</FOR>
      <GIVEN>EURUSD Curncy - Last Price</GIVEN>
      <GIVEN>SPGTCED Index - Last Price</GIVEN>
      <TABLE>0.38620689655172413 0.296551724137931 0.31724137931034485 0.3262411347517731 0.375886524822695 0.2978723404255319 0.3613707165109034 0.29283489096573206 0.34579439252336447 0.3804347826086957 0.3188405797101449 0.3007246376811594 0.30843373493975906 0.35903614457831323 0.3325301204819277 0.30057803468208094 0.3815028901734104 0.3179190751445087 0.3180428134556575 0.3180428134556575 0.363914373088685 0.3058823529411765 0.3588235294117647 0.3352941176470588 0.3162162162162162 0.3054054054054054 0.3783783783783784 </TABLE>
    </DEFINITION>
    <DEFINITION>
      <FOR>SPGTCED Index - Last Price</FOR>
      <GIVEN>EURCNY Curncy - Last Price</GIVEN>
      <GIVEN>EURUSD Curncy - Last Price</GIVEN>
      <TABLE>0.39805825242718446 0.27184466019417475 0.3300970873786408 0.25384615384615383 0.4846153846153846 0.26153846153846155 0.29310344827586204 0.3275862068965517 0.3793103448275862 0.4166666666666667 0.2727272727272727 0.3106060606060606 0.2766990291262136 0.4045307443365696 0.3187702265372168 0.29965156794425085 0.3519163763066202 0.34843205574912894 0.4652777777777778 0.2708333333333333 0.2638888888888889 0.2491349480968858 0.35294117647058826 0.39792387543252594 0.3391304347826087 0.3130434782608696 0.34782608695652173 </TABLE>
    </DEFINITION>
    <DEFINITION>
      <FOR>SPX Index - Last Price</FOR>
      <GIVEN>EURUSD Curncy - Last Price</GIVEN>
      <GIVEN>NG1 COMB Comdty - Last Price</GIVEN>
      <GIVEN>SPGTCED Index - Last Price</GIVEN>
      <TABLE>0.625 0.125 0.25 0.20652173913043478 0.5434782608695652 0.25 0.28448275862068967 0.29310344827586204 0.4224137931034483 0.5968992248062015 0.13178294573643412 0.2713178294573643 0.12264150943396226 0.6132075471698113 0.2641509433962264 0.30851063829787234 0.2765957446808511 0.4148936170212766 0.572463768115942 0.13768115942028986 0.2898550724637681 0.15476190476190477 0.6071428571428571 0.23809523809523808 0.3063063063063063 0.25225225225225223 0.44144144144144143 0.5428571428571428 0.14285714285714285 0.3142857142857143 0.1328125 0.5625 0.3046875 0.22115384615384615 0.40384615384615385 0.375 0.6477272727272727 0.20454545454545456 0.14772727272727273 0.10738255033557047 0.6577181208053692 0.2348993288590604 0.36363636363636365 0.3181818181818182 0.3181818181818182 0.5542168674698795 0.14457831325301204 0.30120481927710846 0.10869565217391304 0.5942028985507246 0.2971014492753623 0.3 0.22727272727272727 0.4727272727272727 0.5769230769230769 0.1346153846153846 0.28846153846153844 0.19230769230769232 0.4519230769230769 0.3557692307692308 0.3504273504273504 0.2222222222222222 0.42735042735042733 0.5288461538461539 0.14423076923076922 0.3269230769230769 0.11475409836065574 0.5901639344262295 0.29508196721311475 0.19469026548672566 0.3805309734513274 0.4247787610619469 0.5210084033613446 0.11764705882352941 0.36134453781512604 0.14912280701754385 0.49122807017543857 0.35964912280701755 0.2357142857142857 0.2357142857142857 0.5285714285714286 </TABLE>
    </DEFINITION>
    <DEFINITION>
      <FOR>SXXP Index - Last Price</FOR>
      <GIVEN>ECO Index - Last Price</GIVEN>
      <GIVEN>EURUSD Curncy - Last Price</GIVEN>
      <GIVEN>SPGTCED Index - Last Price</GIVEN>
      <GIVEN>SPX Index - Last Price</GIVEN>
      <TABLE>0.6666666666666666 0.0892018779342723 0.24413145539906103 0.3333333333333333 0.38095238095238093 0.2857142857142857 0.37142857142857144 0.18571428571428572 0.44285714285714284 0.15384615384615385 0.23076923076923078 0.6153846153846154 0.0 1.0 0.0 0.0 0.8571428571428571 0.14285714285714285 0.46511627906976744 0.18604651162790697 0.3488372093023256 0.0 0.3 0.7 0.14814814814814814 0.4074074074074074 0.4444444444444444 0.7073170731707317 0.04878048780487805 0.24390243902439024 0.21052631578947367 0.3684210526315789 0.42105263157894735 0.4772727272727273 0.11363636363636363 0.4090909090909091 0.6666666666666666 0.16666666666666666 0.16666666666666666 0.3333333333333333 0.3333333333333333 0.3333333333333333 0.125 0.5 0.375 0.625 0.0625 0.3125 0.16666666666666666 0.4166666666666667 0.4166666666666667 0.425 0.175 0.4 0.6338028169014085 0.07042253521126761 0.29577464788732394 0.25 0.375 0.375 0.2833333333333333 0.18333333333333332 0.5333333333333333 0.3333333333333333 0.3333333333333333 0.3333333333333333 0.0 0.6666666666666666 0.3333333333333333 0.2 0.2 0.6 0.40816326530612246 0.16326530612244897 0.42857142857142855 0.0 0.5555555555555556 0.4444444444444444 0.23333333333333334 0.2 0.5666666666666667 0.42857142857142855 0.14285714285714285 0.42857142857142855 0.1875 0.5 0.3125 0.3333333333333333 0.0 0.6666666666666666 0.07142857142857142 0.21428571428571427 0.7142857142857143 0.033783783783783786 0.8581081081081081 0.10810810810810811 0.21951219512195122 0.3170731707317073 0.4634146341463415 0.42857142857142855 0.2857142857142857 0.2857142857142857 0.0975609756097561 0.6341463414634146 0.2682926829268293 0.25 0.1875 0.5625 0.6 0.2 0.2 0.3333333333333333 0.4166666666666667 0.25 0.5 0.5 0.0 0.42105263157894735 0.3157894736842105 0.2631578947368421 0.1111111111111111 0.6666666666666666 0.2222222222222222 0.25757575757575757 0.4393939393939394 0.30303030303030304 0.5714285714285714 0.42857142857142855 0.0 0.30952380952380953 0.38095238095238093 0.30952380952380953 0.3684210526315789 0.21052631578947367 0.42105263157894735 0.6 0.0 0.4 0.15384615384615385 0.5384615384615384 0.3076923076923077 0.75 0.08333333333333333 0.16666666666666666 0.5909090909090909 0.22727272727272727 0.18181818181818182 0.07913669064748201 0.6762589928057554 0.2446043165467626 0.18181818181818182 0.509090909090909 0.3090909090909091 0.4 0.2 0.4 0.21818181818181817 0.41818181818181815 0.36363636363636365 0.22580645161290322 0.3225806451612903 0.45161290322580644 0.6341463414634146 0.0975609756097561 0.2682926829268293 0.3 0.35 0.35 0.2926829268292683 0.2682926829268293 0.43902439024390244 0.3888888888888889 0.3888888888888889 0.2222222222222222 0.125 0.75 0.125 0.13043478260869565 0.5652173913043478 0.30434782608695654 0.45652173913043476 0.15217391304347827 0.391304347826087 0.05405405405405406 0.6756756756756757 0.2702702702702703 0.20512820512820512 0.34615384615384615 0.44871794871794873 0.75 0.0 0.25 0.5 0.14285714285714285 0.35714285714285715 0.52 0.24 0.24 0.43478260869565216 0.30434782608695654 0.2608695652173913 0.16666666666666666 0.6666666666666666 0.16666666666666666 0.14634146341463414 0.4146341463414634 0.43902439024390244 0.5102040816326531 0.04081632653061224 0.4489795918367347 0.2 0.34545454545454546 0.45454545454545453 0.36486486486486486 0.22972972972972974 0.40540540540540543 0.6 0.0 0.4 0.22727272727272727 0.36363636363636365 0.4090909090909091 0.4857142857142857 0.11428571428571428 0.4 0.4782608695652174 0.21739130434782608 0.30434782608695654 0.06060606060606061 0.6060606060606061 0.3333333333333333 0.08163265306122448 0.40816326530612246 0.5102040816326531 0.5238095238095238 0.14285714285714285 0.3333333333333333 0.20689655172413793 0.4827586206896552 0.3103448275862069 0.2972972972972973 0.23423423423423423 0.46846846846846846 </TABLE>
    </DEFINITION>
    <DEFINITION>
      <FOR>VIX Index - Last Price</FOR>
      <GIVEN>ECO Index - Last Price</GIVEN>
      <GIVEN>LP01TREU Index - Last Price</GIVEN>
      <GIVEN>NG1 COMB Comdty - Last Price</GIVEN>
      <GIVEN>SPX Index - Last Price</GIVEN>
      <TABLE>0.017391304347826087 0.7478260869565218 0.23478260869565218 0.5384615384615384 0.07692307692307693 0.38461538461538464 0.2553191489361702 0.2978723404255319 0.44680851063829785 0.05154639175257732 0.7731958762886598 0.17525773195876287 0.3333333333333333 0.3333333333333333 0.3333333333333333 0.16 0.32 0.52 0.05747126436781609 0.7701149425287356 0.1724137931034483 0.4444444444444444 0.1111111111111111 0.4444444444444444 0.2702702702702703 0.4864864864864865 0.24324324324324326 0.023255813953488372 0.7209302325581395 0.2558139534883721 0.36363636363636365 0.09090909090909091 0.5454545454545454 0.12121212121212122 0.2727272727272727 0.6060606060606061 0.02 0.76 0.22 0.75 0.0625 0.1875 0.10344827586206896 0.2413793103448276 0.6551724137931034 0.030303030303030304 0.6060606060606061 0.36363636363636365 0.7 0.1 0.2 0.05128205128205128 0.28205128205128205 0.6666666666666666 0.024390243902439025 0.7195121951219512 0.25609756097560976 0.5454545454545454 0.09090909090909091 0.36363636363636365 0.2 0.26666666666666666 0.5333333333333333 0.02666666666666667 0.6933333333333334 0.28 0.5454545454545454 0.0 0.45454545454545453 0.2 0.3 0.5 0.09836065573770492 0.7377049180327869 0.16393442622950818 0.5 0.16666666666666666 0.3333333333333333 0.07692307692307693 0.3076923076923077 0.6153846153846154 0.0 0.6875 0.3125 0.7428571428571429 0.02857142857142857 0.22857142857142856 0.375 0.08333333333333333 0.5416666666666666 0.16666666666666666 0.5 0.3333333333333333 0.8 0.0 0.2 0.20588235294117646 0.17647058823529413 0.6176470588235294 0.0 0.75 0.25 0.9142857142857143 0.02857142857142857 0.05714285714285714 0.2727272727272727 0.36363636363636365 0.36363636363636365 0.0 1.0 0.0 0.79 0.01 0.2 0.2727272727272727 0.18181818181818182 0.5454545454545454 0.25 0.5 0.25 0.8484848484848485 0.007575757575757576 0.14393939393939395 0.25 0.16666666666666666 0.5833333333333334 0.16666666666666666 0.5833333333333334 0.25 0.8108108108108109 0.02702702702702703 0.16216216216216217 0.2 0.12 0.68 0.14285714285714285 0.5 0.35714285714285715 0.7647058823529411 0.014705882352941176 0.22058823529411764 0.2222222222222222 0.19444444444444445 0.5833333333333334 0.08333333333333333 0.75 0.16666666666666666 0.8734177215189873 0.0 0.12658227848101267 0.16129032258064516 0.25806451612903225 0.5806451612903226 0.18181818181818182 0.45454545454545453 0.36363636363636365 0.835820895522388 0.0 0.16417910447761194 0.08333333333333333 0.4166666666666667 0.5 0.045454545454545456 0.6363636363636364 0.3181818181818182 0.6190476190476191 0.047619047619047616 0.3333333333333333 0.28846153846153844 0.17307692307692307 0.5384615384615384 0.14285714285714285 0.6 0.2571428571428571 0.4838709677419355 0.06451612903225806 0.45161290322580644 0.1590909090909091 0.4090909090909091 0.4318181818181818 0.10204081632653061 0.5714285714285714 0.32653061224489793 0.6071428571428571 0.07142857142857142 0.32142857142857145 0.10869565217391304 0.1956521739130435 0.6956521739130435 0.08695652173913043 0.6521739130434783 0.2608695652173913 0.7837837837837838 0.08108108108108109 0.13513513513513514 0.32 0.3 0.38 0.0 0.7222222222222222 0.2777777777777778 0.7142857142857143 0.023809523809523808 0.2619047619047619 0.2826086956521739 0.34782608695652173 0.3695652173913043 0.0 0.6451612903225806 0.3548387096774194 0.6666666666666666 0.041666666666666664 0.2916666666666667 0.11666666666666667 0.21666666666666667 0.6666666666666666 0.027777777777777776 0.7222222222222222 0.25 0.6 0.04 0.36 0.2702702702702703 0.1891891891891892 0.5405405405405406 0.03571428571428571 0.8928571428571429 0.07142857142857142 0.8333333333333334 0.08333333333333333 0.08333333333333333 0.10638297872340426 0.46808510638297873 0.425531914893617 0.0 0.6 0.4 0.625 0.041666666666666664 0.3333333333333333 0.16842105263157894 0.18947368421052632 0.6421052631578947 </TABLE>
    </DEFINITION>
    <DEFINITION>
      <FOR>XA1 Comdty - Last Price</FOR>
      <GIVEN>CAC Index - Last Price</GIVEN>
      <GIVEN>EURCNY Curncy - Last Price</GIVEN>
      <GIVEN>MXEU0EN Index - Last Price</GIVEN>
      <GIVEN>NG1 COMB Comdty - Last Price</GIVEN>
      <GIVEN>SPGTCED Index - Last Price</GIVEN>
